// #### Generated By: http://www.cufonfonts.com ####
/*!
 * The following copyright notice may not be removed under any circumstances.
 * 
 * Copyright:
 * Copyright (c) 2010 by Peter Wiegel.   Open Font under Terms of following Free
 * Software Licenses:
 * GPL (General Public License) with font-exception and OFL (Open Font License
 * 
 * Trademark:
 * Proletarskr  is a trademark of Peter Wiegel.
 * 
 * Description:
 * Copyright (c) 2010 by Peter Wiegel.   Open Font under Terms of following Free
 * Software Licenses:
 * GPL (General Public License) with font-exception and OFL (Open Font License
 * 
 * Manufacturer:
 * Peter Wiegel
 * 
 * Designer:
 * Peter Wiegel, original typeface by Carl Albert Fahrenwaldt 1901
 * 
 * Vendor URL:
 * www.peter-wiegel.de
 * 
 * License information:
 * http://www.fsf.org/licenses/gpl.html AND http://scripts.sil.org/OFL
 */
Cufon.registerFont({"w":1400,"face":{"font-family":"Proletarsk","font-weight":400,"font-stretch":"normal","units-per-em":"2048","panose-1":"2 11 6 3 5 3 2 2 2 4","ascent":"1638","descent":"-410","x-height":"5","cap-height":"5","bbox":"-530 -2146 2533 741","underline-thickness":"0","underline-position":"0","unicode-range":"U+0020-U+FB06"},"glyphs":{" ":{"w":600},"!":{"d":"130,-351r0,-1113r183,0r0,1113r-183,0xm130,4r0,-173r175,0r0,173r-175,0","w":443},"\"":{"d":"502,-1118r0,-348r175,0r0,348r-175,0xm150,-1118r0,-348r175,0r0,348r-175,0","w":830},"#":{"d":"71,-290r0,-154r169,0r0,-155r-169,0r0,-155r169,0r0,-170r155,0r0,170r155,0r0,-170r154,0r0,170r170,0r0,155r-170,0r0,155r170,0r0,154r-170,0r0,169r-154,0r0,-169r-155,0r0,169r-155,0r0,-169r-169,0xm395,-444r155,0r0,-155r-155,0r0,155","w":946},"$":{"d":"723,-1401v120,79,211,216,187,410r-178,0v30,-138,-39,-237,-137,-280r0,464v145,34,253,132,296,265v86,266,-72,486,-296,538r0,9r-183,0r0,-9v-184,-49,-309,-181,-319,-402v-1,-22,1,-42,4,-61r179,0v-30,138,38,238,136,280r0,-464v-184,-49,-319,-181,-319,-402v0,-165,86,-278,191,-348v39,-25,82,-43,128,-53r0,-10r183,0r0,10v46,10,89,28,128,53xm595,-186v95,-42,176,-158,135,-288v-22,-70,-70,-122,-135,-150r0,438xm412,-1271v-93,40,-175,157,-134,287v21,70,68,123,134,150r0,-437","w":1008},"%":{"d":"1264,-1464r-816,1469r-199,0r815,-1469r200,0xm1226,-315v0,-88,-60,-149,-148,-149v-89,0,-149,59,-149,149v0,90,59,149,149,149v89,0,148,-60,148,-149xm780,-440v56,-143,231,-247,423,-174v141,54,245,240,173,424v-55,140,-240,244,-424,172v-141,-55,-244,-238,-172,-422xm558,-1140v0,-88,-60,-149,-148,-149v-89,0,-149,59,-149,149v0,90,59,149,149,149v89,0,148,-60,148,-149xm112,-1265v56,-143,231,-246,423,-173v141,54,245,240,173,424v-55,140,-240,244,-424,172v-141,-55,-244,-239,-172,-423","w":1493},"&":{"d":"516,-16v-244,94,-490,-133,-393,-392v14,-35,36,-68,66,-98r152,-152r-89,-88v-85,-81,-111,-205,-64,-326v50,-131,222,-233,392,-162v104,43,183,136,183,277v0,83,-29,153,-87,211r-88,88r177,177r272,-273r124,124r-273,273r186,188r94,0r0,174r-166,0r-237,-239r-152,152v-29,29,-61,52,-97,66xm313,-382v-76,73,-24,213,87,213v34,0,64,-11,89,-36r152,-153r-177,-176xm464,-1082v-110,-6,-162,138,-88,212r88,88r88,-88v24,-24,36,-53,36,-88v0,-75,-49,-120,-124,-124","w":1210},"'":{"d":"150,-1118r0,-348r175,0r0,348r-175,0","w":484},"(":{"d":"219,-729v0,303,258,568,560,560r0,174v-397,11,-735,-338,-735,-734v0,-395,339,-746,735,-735r0,175v-302,-9,-560,259,-560,560","w":895},")":{"d":"655,-582v103,-380,-194,-711,-540,-708r0,-174v395,-11,735,339,735,734v0,393,-340,747,-735,735r0,-175v240,-7,388,-125,483,-279v25,-41,44,-85,57,-133","w":894},"*":{"d":"40,-1194r78,-134r232,134r0,-268r155,0r0,269r232,-134r77,134r-231,133r230,132r-77,135r-231,-133r0,267r-155,0r0,-266r-232,133r-77,-135r231,-133","w":854},"+":{"d":"7,-599r324,0r0,-325r155,0r0,325r324,0r0,155r-324,0r0,324r-155,0r0,-324r-324,0r0,-155","w":817},",":{"d":"150,179r0,-348r175,0r0,348r-175,0","w":483},"-":{"d":"150,-444r0,-155r803,0r0,155r-803,0","w":1105},".":{"d":"150,4r0,-173r175,0r0,173r-175,0","w":483},"\/":{"d":"1016,-1464r-816,1469r-199,0r815,-1469r200,0","w":1017},"0":{"d":"244,-1348v85,-88,280,-157,441,-85v139,61,256,181,256,364r0,663v-6,192,-112,315,-252,378v-98,43,-222,44,-319,0v-140,-63,-251,-185,-251,-378r0,-663v5,-119,60,-212,125,-279xm530,-1289v-137,0,-236,90,-236,220r0,663v3,111,62,187,144,218v170,63,328,-43,328,-218r0,-663v-18,-127,-99,-220,-236,-220","w":1060},"1":{"d":"296,5r0,-1247r-96,173r-200,0r219,-395r260,0r0,1469r-183,0","w":632},"2":{"d":"91,5r614,-928v68,-89,34,-232,-29,-295v-55,-55,-165,-90,-258,-52v-103,41,-185,172,-129,307v36,87,115,153,242,145r-111,167v-190,-47,-324,-180,-324,-405v0,-191,114,-314,254,-376v98,-43,222,-42,320,2v163,73,294,263,232,498v-10,37,-29,71,-52,106r-434,657r503,0r0,174r-828,0","w":1006},"3":{"d":"577,-1270v-162,-61,-317,46,-327,201r-175,0v11,-184,116,-304,255,-364v97,-42,218,-43,314,1v139,63,253,186,253,379v0,134,-52,242,-157,324v144,109,201,297,124,482v-59,142,-185,252,-378,252v-193,0,-315,-112,-378,-251v-22,-50,-33,-103,-33,-160r175,0v3,111,62,186,144,218v198,78,390,-102,309,-309v-32,-82,-107,-141,-217,-145r0,-175v111,-3,185,-63,218,-144v56,-137,-24,-269,-127,-309","w":1000},"4":{"d":"681,5r0,-400r-680,0r595,-1071r200,0r-498,897r383,0r0,-500r175,0r0,500r161,0r0,174r-161,0r0,400r-175,0","w":1071},"5":{"d":"936,-1464r0,175r-647,0r0,288v110,-80,262,-101,395,-42v140,62,252,185,252,378v0,151,14,309,-34,421v-73,170,-284,306,-518,224v-133,-46,-228,-152,-262,-298r183,0v45,127,176,183,311,130v82,-33,145,-107,145,-218v0,-120,21,-259,-18,-350v-35,-81,-108,-145,-218,-145v-107,0,-180,50,-219,149r-192,0r0,-712r822,0","w":1036},"6":{"d":"239,-1343v86,-92,284,-164,449,-89v139,64,246,186,252,379r-175,0v-4,-110,-63,-186,-145,-217v-169,-64,-327,42,-327,217r0,311v109,-80,262,-101,395,-42v140,62,252,185,252,378v0,192,-112,315,-252,378v-98,43,-221,44,-318,0v-140,-63,-252,-185,-252,-378r0,-647v1,-124,57,-221,121,-290xm746,-497v-42,-103,-169,-179,-309,-127v-104,39,-177,176,-125,311v40,103,174,177,308,125v103,-40,181,-175,126,-309","w":1028},"7":{"d":"305,5r0,-781r286,-513r-560,0r0,-175r857,0r-408,733r0,736r-175,0","w":905},"8":{"d":"224,-1343v84,-93,283,-164,448,-89v139,64,253,186,253,379v0,135,-52,243,-157,324v144,108,201,297,124,482v-59,142,-185,252,-378,252v-193,0,-319,-110,-378,-251v-77,-184,-19,-376,125,-483v-144,-105,-200,-298,-125,-483v20,-50,53,-92,88,-131xm732,-314v77,-207,-109,-385,-309,-310v-103,39,-179,175,-127,310v40,103,175,181,309,126v57,-24,105,-68,127,-126xm732,-961v77,-207,-109,-384,-309,-309v-103,39,-179,174,-127,309v40,103,176,180,310,125v57,-24,104,-67,126,-125","w":1028},"9":{"d":"789,-116v-86,92,-284,163,-449,88v-140,-64,-246,-185,-252,-378r175,0v3,112,61,187,144,218v170,63,328,-43,328,-218r0,-310v-111,79,-262,100,-395,42v-140,-62,-252,-186,-252,-379v0,-192,112,-316,252,-379v98,-43,220,-44,318,0v140,63,252,186,252,379r0,647v-1,124,-57,221,-121,290xm282,-1145v-78,208,107,385,309,309v103,-38,178,-174,125,-308v-41,-102,-175,-181,-309,-126v-57,24,-103,67,-125,125","w":1029},":":{"d":"150,-465r0,-173r175,0r0,173r-175,0xm150,4r0,-173r175,0r0,173r-175,0","w":356},";":{"d":"150,179r0,-348r175,0r0,348r-175,0xm150,-465r0,-173r175,0r0,173r-175,0","w":431},"<":{"d":"536,-1464r217,0r-533,735r533,734r-217,0r-532,-734","w":836},"=":{"d":"150,-599r0,-155r803,0r0,155r-803,0xm150,-290r0,-154r803,0r0,154r-803,0","w":1006},">":{"d":"300,5r-217,0r533,-735r-533,-734r217,0r532,734","w":836},"\u2047":{"d":"953,-1279v109,114,177,345,99,537v-71,174,-208,306,-413,343r0,48r-183,0r0,-215v93,0,167,0,237,-30v153,-65,273,-270,189,-473v-20,-47,-50,-88,-86,-122v-62,59,-112,148,-113,262r-175,0v0,-135,43,-251,130,-350v-204,-46,-362,63,-424,210v-19,44,-28,91,-28,140r-175,0v-8,-288,250,-537,537,-537v88,0,178,26,246,61v132,-73,314,-84,458,-19v183,82,331,243,331,495v0,226,-123,377,-271,467v-54,32,-113,53,-176,63r0,48r-183,0r0,-215v93,0,167,0,237,-30v153,-65,274,-270,189,-473v-60,-144,-219,-257,-426,-210xm953,4r0,-173r175,0r0,173r-175,0xm456,4r0,-173r175,0r0,173r-175,0","w":1629},"@":{"d":"264,-729v0,306,261,562,557,562r475,0v-133,115,-291,172,-472,172v-397,0,-735,-338,-735,-734v0,-395,339,-735,735,-735v303,0,582,213,680,453v87,212,67,482,-50,662r-530,0r0,-9v-214,45,-384,-69,-450,-224v-66,-155,-1,-340,84,-420v81,-76,216,-139,366,-101r0,-8r184,0r0,598r233,0v160,-384,-146,-776,-517,-776v-302,0,-560,259,-560,560xm924,-916v-173,-90,-363,75,-290,268v37,97,171,168,290,106r0,-374","w":1629},"A":{"d":"482,-1464r250,0r437,1469r-183,0r-52,-174r-655,0r-52,174r-182,0xm331,-344r551,0r-275,-927","w":1215},"B":{"d":"941,-729v94,71,158,153,158,323v0,91,-41,181,-121,273v-80,92,-177,138,-290,138r-538,0r0,-1469r538,0v113,0,209,46,290,139v81,93,121,183,121,272v0,169,-63,254,-158,324xm325,-642r0,473r363,0v110,-3,187,-63,218,-145v63,-169,-45,-328,-218,-328r-363,0xm688,-1289r-363,0r0,472r363,0v111,-3,187,-62,218,-144v63,-169,-45,-328,-218,-328","w":1206},"C":{"d":"823,-169v248,-8,401,-132,494,-298r192,0v-82,208,-244,366,-462,437v-502,164,-959,-232,-959,-699v0,-465,456,-863,958,-699v219,71,381,228,463,437r-192,0v-95,-164,-246,-290,-494,-298v-302,-9,-560,259,-560,560v0,303,258,568,560,560","w":1570},"D":{"d":"1275,-729v0,396,-339,745,-735,734r-389,0r0,-1469r389,0v304,-12,584,212,682,453v36,85,53,179,53,282xm754,-1248v-118,-51,-267,-39,-428,-41r0,1120v164,-2,311,11,430,-45v189,-89,335,-252,344,-515v8,-231,-164,-440,-346,-519","w":1349},"E":{"d":"1100,5r-949,0r0,-1469r949,0r0,175r-774,0r0,472r613,0r0,175r-613,0r0,473r774,0r0,174","w":1156},"F":{"d":"327,5r-175,0r0,-1469r949,0r0,175r-774,0r0,472r608,0r0,175r-608,0r0,647","w":1101},"G":{"d":"1559,-729v11,396,-339,734,-734,734v-397,0,-735,-338,-735,-734v0,-465,456,-863,958,-699v219,71,381,228,463,437r-192,0v-95,-164,-246,-290,-494,-298v-302,-9,-560,259,-560,560v0,367,373,673,757,523v183,-72,315,-223,356,-436r-509,0r0,-175r685,0","w":1635},"H":{"d":"328,5r-175,0r0,-1469r175,0r0,647r599,0r0,-647r175,0r0,1469r-175,0r0,-647r-599,0r0,647","w":1257},"I":{"d":"153,5r0,-1469r175,0r0,1469r-175,0","w":490},"J":{"d":"822,-406v-6,192,-112,315,-252,378v-98,43,-221,44,-318,0v-140,-63,-246,-185,-252,-378r175,0v3,111,62,187,144,218v170,63,328,-43,328,-218r0,-1058r175,0r0,1058","w":961},"K":{"d":"329,5r-175,0r0,-1469r175,0r0,650r650,-650r247,0r-735,736r735,733r-247,0r-650,-648r0,648","w":1313},"L":{"d":"1104,5r-949,0r0,-1469r175,0r0,1295r774,0r0,174","w":1104},"M":{"d":"330,5r-175,0r0,-1469r175,0r455,789r455,-789r175,0r0,1469r-175,0r0,-1119r-455,789r-455,-789r0,1119","w":1571},"N":{"d":"331,5r-175,0r0,-1469r175,0r799,1161r0,-1161r175,0r0,1469r-175,0r-799,-1160r0,1160","w":1462},"O":{"d":"1562,-729v0,396,-339,734,-734,734v-397,0,-735,-338,-735,-734v0,-395,339,-735,735,-735v303,0,582,213,680,453v36,85,54,179,54,282xm268,-729v0,303,258,560,560,560v300,0,559,-260,559,-560v0,-300,-261,-560,-559,-560v-302,0,-560,259,-560,560","w":1655},"P":{"d":"695,-642r-363,0r0,647r-175,0r0,-1469r538,0v192,5,316,113,379,252v44,98,43,220,0,318v-63,140,-186,252,-379,252xm332,-1289r0,472r363,0v111,-3,186,-62,217,-144v63,-169,-44,-328,-217,-328r-363,0","w":1110},"Q":{"d":"832,-1464v398,0,734,340,734,739v0,168,-52,318,-156,450r280,279r-246,0r-158,-155v-194,160,-479,202,-734,103v-243,-94,-454,-376,-454,-681v0,-393,337,-735,734,-735xm832,-1289v-372,0,-683,393,-516,775v84,192,252,346,516,346v121,0,231,-36,330,-108r-391,-391r123,-124r391,391v71,-97,107,-206,107,-325v0,-305,-257,-564,-560,-564","w":1765},"R":{"d":"1107,5r-214,0r-452,-647r-108,0r0,647r-175,0r0,-1469r538,0v192,5,315,113,378,252v44,98,44,220,0,318v-68,150,-198,260,-420,252xm333,-1289r0,472r363,0v111,-3,187,-62,218,-144v63,-169,-45,-328,-218,-328r-363,0","w":1210},"S":{"d":"348,-28v-156,-71,-270,-217,-247,-439r179,0v-31,137,38,240,136,279v198,78,390,-102,309,-309v-32,-82,-107,-141,-217,-145v-193,-5,-315,-113,-378,-252v-44,-97,-43,-220,0,-318v63,-140,185,-252,378,-252v192,0,316,113,378,252v30,67,40,140,28,221r-178,0v31,-137,-39,-240,-137,-279v-197,-79,-388,102,-309,309v31,83,107,141,218,144v192,6,315,114,378,253v43,98,43,219,0,317v-63,140,-185,252,-378,252v-57,0,-110,-11,-160,-33","w":1016},"T":{"d":"991,-1464r0,175r-391,0r0,1294r-183,0r0,-1294r-390,0r0,-175r964,0","w":1018},"U":{"d":"964,-406v-6,192,-112,315,-252,378v-98,43,-221,44,-318,0v-140,-63,-252,-185,-252,-378r0,-1058r165,0r10,1058v3,111,62,187,144,218v170,63,328,-43,328,-218r0,-1058r175,0r0,1058","w":1107},"V":{"d":"484,5r-437,-1469r182,0r380,1277r379,-1277r183,0r-437,1469r-250,0","w":1219},"W":{"d":"414,5r-316,-1469r179,0r273,1270r273,-1270r276,0r273,1270r273,-1270r178,0r-315,1469r-272,0r-275,-1279r-275,1279r-272,0","w":1922},"X":{"d":"332,-1464r425,586r424,-586r217,0r-533,735r533,734r-217,0r-424,-585r-425,585r-216,0r533,-734r-533,-735r216,0","w":1514},"Y":{"d":"242,-1464r425,586r424,-586r217,0r-554,763r0,706r-175,0r0,-706r-553,-763r216,0","w":1334},"Z":{"d":"1107,5r-1016,0r719,-1294r-719,0r0,-175r1016,0r-719,1295r719,0r0,174","w":1197},"[":{"d":"514,5r-353,0r0,-1469r353,0r0,175r-178,0r0,1120r178,0r0,174","w":606},"\\":{"d":"1,-1464r199,0r816,1469r-200,0","w":1017},"]":{"d":"90,-1464r353,0r0,1469r-353,0r0,-175r178,0r0,-1120r-178,0r0,-174","w":608},"^":{"d":"244,-580r-215,0r640,-884r640,884r-216,0r-424,-586","w":1338},"_":{"d":"161,400r0,-155r803,0r0,155r-803,0","w":1127},"`":{"d":"266,-1107r-247,-247r124,-123r246,246","w":409},"a":{"d":"96,-532v0,-289,250,-537,537,-537v139,0,260,47,363,140r0,-140r175,0r0,1074r-175,0r0,-140v-103,93,-224,140,-363,140v-289,0,-537,-248,-537,-537xm300,-391v66,158,261,280,473,193v126,-51,223,-163,223,-334v0,-169,-100,-279,-223,-334v-145,-66,-318,-1,-395,78v-83,85,-138,254,-78,397","w":1333},"b":{"d":"906,-38v-202,87,-426,40,-570,-97r0,140r-175,0r0,-1469r175,0r0,535v144,-138,368,-185,570,-97v184,80,330,242,330,494v0,252,-146,415,-330,494xm364,-391v66,158,262,280,474,193v126,-51,223,-163,223,-334v0,-169,-100,-279,-223,-334v-145,-66,-319,-1,-396,78v-83,85,-138,254,-78,397","w":1254},"c":{"d":"632,-169v158,0,256,-85,318,-188r191,0v-79,204,-239,353,-509,362v-289,10,-537,-248,-537,-537v0,-342,338,-634,705,-510v163,55,283,174,341,335r-191,0v-63,-102,-160,-187,-318,-187v-170,0,-278,99,-334,222v-66,145,-3,321,78,396v62,57,145,107,256,107","w":1207},"d":{"d":"18,-532v0,-289,250,-537,537,-537v139,0,260,47,363,140r0,-535r175,0r0,1469r-175,0r0,-140v-103,93,-224,140,-363,140v-289,0,-537,-248,-537,-537xm222,-391v66,158,261,280,473,193v126,-51,223,-163,223,-334v0,-169,-100,-279,-223,-334v-145,-66,-318,-1,-395,78v-83,85,-138,254,-78,397","w":1255},"e":{"d":"633,-169v158,0,256,-85,318,-188r191,0v-79,204,-239,353,-509,362v-289,10,-537,-248,-537,-537v0,-358,377,-655,744,-494v183,80,331,242,331,494v0,31,-3,60,-8,88r-882,0v46,157,159,275,352,275xm985,-619v-47,-185,-243,-330,-473,-254v-116,39,-198,130,-231,254r704,0","w":1255},"f":{"d":"746,-1237v-84,-78,-240,-58,-308,13v-36,38,-69,89,-74,155r235,0r0,175r-235,0r0,899r-175,0r0,-899r-132,0r0,-175r131,0v12,-184,117,-305,256,-364v147,-62,308,-31,417,65","w":680,"k":{"o":86}},"g":{"d":"75,-532v0,-289,250,-537,537,-537v139,0,260,47,363,140r0,-140r175,0r0,1074v-7,251,-147,416,-330,495v-208,90,-436,37,-580,-108r121,-126v98,98,249,132,391,72v125,-53,217,-163,223,-333r0,-140v-103,93,-224,140,-363,140v-289,0,-537,-248,-537,-537xm278,-391v66,158,262,280,474,193v126,-51,223,-163,223,-334v0,-169,-100,-279,-223,-334v-145,-66,-319,-1,-396,78v-83,85,-138,254,-78,397","w":1290},"h":{"d":"572,-894v-137,0,-236,89,-236,219r0,680r-175,0r0,-1469r175,0r0,469v109,-78,258,-99,391,-43v139,59,255,180,255,363r0,680r-175,0r0,-680v-18,-127,-99,-219,-235,-219","w":1021},"i":{"d":"126,5r0,-1074r175,0r0,1074r-175,0xm213,-1289v-58,0,-87,-29,-87,-87v0,-59,29,-88,87,-88v59,0,88,29,88,88v0,58,-29,87,-88,87","w":433},"j":{"d":"-105,224v135,-6,235,-88,235,-219r0,-1074r175,0r0,1074v-12,182,-114,305,-253,363v-160,67,-331,26,-441,-84r120,-127v44,43,100,70,164,67xm217,-1464v59,0,88,29,88,88v0,58,-29,87,-88,87v-58,0,-87,-29,-87,-87v0,-59,29,-88,87,-88","w":418},"k":{"d":"161,5r0,-1469r175,0r0,864r413,-469r233,0r-319,363r314,711r-191,0r-251,-567r-199,228r0,339r-175,0","w":989},"l":{"d":"303,-389v15,130,98,213,236,220r0,174v-188,-6,-311,-107,-375,-241v-22,-48,-36,-98,-36,-153r0,-1075r175,0r0,1075","w":549},"m":{"d":"662,-877v-161,-60,-313,48,-323,202r-3,0r0,680r-175,0r0,-1074r175,0r0,77v178,-129,439,-92,562,80v105,-143,295,-201,479,-126v140,57,255,181,255,363r-1,680r-174,0r0,-680v-14,-152,-161,-263,-325,-202v-80,30,-146,101,-146,202r-1,680r-175,0r0,-680v-10,-100,-68,-172,-148,-202","w":1778},"n":{"d":"662,-877v-161,-60,-313,48,-323,202r-3,0r0,680r-175,0r0,-1074r175,0r0,77v108,-81,259,-103,394,-46v139,59,256,181,256,363r-1,680r-175,0r0,-680v-10,-100,-68,-172,-148,-202","w":1121},"o":{"d":"96,-532v0,-358,377,-655,744,-494v183,80,331,242,331,494v0,252,-146,414,-330,494v-367,160,-745,-134,-745,-494xm300,-391v66,158,261,280,473,193v126,-51,223,-163,223,-334v0,-169,-100,-279,-223,-334v-145,-66,-318,-1,-395,78v-83,85,-138,254,-78,397","w":1266,"k":{"x":128}},"p":{"d":"906,-38v-202,87,-426,40,-570,-97r0,533r-175,0r0,-1467r175,0r0,140v144,-138,368,-185,570,-97v184,80,330,242,330,494v0,252,-146,415,-330,494xm364,-391v66,158,262,280,474,193v126,-51,223,-163,223,-334v0,-169,-100,-279,-223,-334v-145,-66,-319,-1,-396,78v-83,85,-138,254,-78,397","w":1254},"q":{"d":"18,-532v0,-289,250,-537,537,-537v139,0,260,47,363,140r0,-140r175,0r0,1467r-175,0r0,-533v-103,93,-224,140,-363,140v-289,0,-537,-248,-537,-537xm222,-391v66,158,261,280,473,193v126,-51,223,-163,223,-334v0,-169,-100,-279,-223,-334v-145,-66,-318,-1,-395,78v-83,85,-138,254,-78,397","w":1255},"r":{"d":"734,-832v-82,-87,-245,-74,-321,2v-37,37,-74,89,-74,155r-3,680r-175,0r0,-1074r175,0r0,77v158,-118,393,-97,525,39","w":861,"k":{"c":85}},"s":{"d":"272,-658v0,24,11,39,33,39r390,0v147,0,224,69,224,213v0,192,-113,315,-252,378v-153,70,-349,12,-434,-72v-64,-63,-120,-149,-133,-257r177,0v24,135,171,231,323,169v82,-33,141,-108,144,-220v0,-24,-16,-36,-48,-36r-394,0v-139,0,-207,-74,-205,-214v3,-192,113,-314,252,-378v152,-69,345,-12,431,72v64,63,123,149,136,257r-177,0v-26,-132,-171,-230,-323,-169v-82,33,-140,108,-144,218","w":1015},"t":{"d":"357,-389v15,130,97,213,235,220r0,174v-188,-6,-309,-107,-374,-241v-22,-48,-36,-98,-36,-153r0,-505r-168,0r0,-175r168,0r0,-220r175,0r0,220r234,0r0,175r-234,0r0,505","w":650},"u":{"d":"547,-169v137,0,220,-90,235,-220r4,0r0,-680r175,0r0,1074r-175,0r0,-76v-110,80,-261,102,-396,45v-140,-59,-254,-179,-254,-363r0,-680r175,0r0,680v15,130,98,220,236,220","w":1124},"v":{"d":"373,5r-319,-1074r182,0r262,882r263,-882r182,0r-319,1074r-251,0","w":997},"w":{"d":"416,5r-319,-1074r182,0r262,882r263,-882r263,0r262,882r262,-882r182,0r-319,1074r-250,0r-269,-903r-268,903r-251,0","w":1871,"k":{"a":85}},"x":{"d":"917,-1069r-298,537r298,537r-200,0r-199,-357r-198,357r-200,0r298,-537r-298,-537r200,0r198,357r199,-357r200,0","w":1037},"y":{"d":"367,5r-319,-1074r182,0r262,880r263,-880r182,0r-319,1074r-2,0r-117,393r-182,0r117,-393r-67,0","w":966},"z":{"d":"936,-1069r-500,900r500,0r0,174r-797,0r500,-899r-500,0r0,-175r797,0","w":1076,"k":{"w":43,"e":128}},"{":{"d":"651,-1464r0,175v-111,3,-183,65,-219,145v-12,29,-18,59,-18,91v0,135,-52,243,-157,324v105,82,157,190,157,323v0,111,65,182,145,218v29,12,59,19,92,19r0,174v-193,-5,-316,-112,-379,-251v-22,-50,-33,-103,-33,-160v0,-110,-65,-182,-145,-218v-29,-12,-59,-18,-91,-18r0,-175v111,-3,182,-63,217,-144v33,-78,14,-173,52,-251v67,-138,187,-246,379,-252","w":786},"|":{"d":"161,5r0,-1469r175,0r0,1469r-175,0","w":506},"}":{"d":"135,5r0,-175v141,-8,237,-94,237,-236v0,-135,52,-243,157,-324v-105,-82,-157,-190,-157,-323v0,-111,-65,-183,-145,-219v-29,-12,-59,-18,-92,-18r0,-174v193,5,313,114,379,252v38,78,19,171,52,250v35,81,106,141,217,145r0,175v-141,8,-230,95,-236,236v-8,192,-112,315,-251,378v-50,22,-104,33,-161,33","w":786},"~":{"d":"534,-796v40,0,69,-55,33,-86r187,0v16,122,-49,202,-135,240v-92,40,-187,10,-249,-55v-41,-43,-111,31,-64,71r0,2r-186,0v-16,-120,48,-202,132,-240v92,-41,199,-6,247,50v11,13,24,18,35,18xm313,-624r-1,-1","w":874},"\u00a1":{"d":"317,-1109r0,1113r-183,0r0,-1113r183,0xm317,-1464r0,173r-175,0r0,-173r175,0","w":465},"\u00a2":{"d":"1092,-537v-68,182,-207,315,-416,355r0,187r-175,0r0,-185v-208,-36,-351,-168,-421,-344v-79,-197,-3,-427,97,-537v78,-87,186,-162,324,-182r0,-221r175,0r0,223v209,40,347,173,416,354r-191,0v-46,-80,-126,-149,-225,-175r0,702v97,-26,180,-97,225,-177r191,0xm501,-1065v-184,38,-340,251,-259,473v43,116,131,204,259,235r0,-708","w":1114},"\u00a3":{"d":"623,-1289v-137,0,-235,90,-235,220r0,613r236,0r0,154r-236,0r0,153r648,0r0,155r-955,0r0,-155r132,0r0,-153r-133,0r0,-154r132,0r0,-613v12,-184,117,-303,256,-364v161,-71,354,-4,438,85v64,68,122,161,128,279r-175,0v-18,-127,-99,-220,-236,-220","w":1102},"\u00a4":{"d":"389,-1153v81,-58,177,-94,307,-95v121,0,227,35,319,105r127,-127r124,124r-128,128v126,173,125,447,-3,617r128,128r-124,123r-127,-126v-172,134,-452,136,-627,5r-128,128r-123,-124r126,-127v-138,-176,-136,-465,4,-637r-128,-127r124,-124xm555,-377v247,108,503,-91,503,-334v0,-243,-256,-440,-504,-333v-124,54,-221,163,-221,333v0,170,99,280,222,334","w":1387},"\u00a5":{"d":"274,-290r0,-154r314,0r0,-155r-314,0r0,-155r275,0r-514,-710r216,0r425,586r424,-586r217,0r-516,710r276,0r0,155r-314,0r0,155r314,0r0,154r-314,0r0,295r-175,0r0,-295r-314,0","w":1351},"\u00a6":{"d":"334,-642r0,646r-183,0r0,-646r183,0xm334,-1464r0,640r-175,0r0,-640r175,0","w":458},"\u00a7":{"d":"294,-357v24,134,170,230,322,169v90,-36,158,-125,142,-256r-443,0v-134,0,-201,-71,-201,-214v0,-71,15,-136,46,-193v-55,-103,-60,-238,-14,-350v71,-175,294,-312,528,-223v137,52,235,168,259,334r-177,0v-25,-133,-170,-231,-322,-170v-90,36,-157,126,-142,257r425,0v145,0,219,71,219,214v0,71,-16,136,-47,193v56,104,64,237,15,349v-62,141,-186,252,-379,252v-181,0,-297,-98,-364,-220v-23,-44,-38,-91,-44,-142r177,0xm689,-619v47,-45,73,-104,72,-170v0,-26,-14,-39,-43,-39r-357,0v-47,45,-73,104,-72,170v0,26,12,39,35,39r365,0","w":1049},"\u00a8":{"d":"721,-1289v-58,0,-87,-29,-87,-87v0,-59,29,-88,87,-88v59,0,88,29,88,88v0,58,-29,87,-88,87xm235,-1289v-58,0,-87,-29,-87,-87v0,-59,29,-88,87,-88v59,0,88,29,88,88v0,58,-29,87,-88,87","w":956},"\u00a9":{"d":"1212,-643v-63,174,-174,296,-377,296v-179,0,-294,-104,-353,-233v-41,-91,-39,-207,0,-299v66,-158,252,-285,472,-218v131,40,211,146,258,279r-182,0v-43,-84,-159,-156,-278,-107v-91,37,-162,159,-111,277v31,73,95,130,194,130v92,0,158,-59,194,-125r183,0xm1565,-729v0,396,-339,734,-734,734v-397,0,-735,-338,-735,-734v0,-395,339,-735,735,-735v303,0,583,213,681,453v36,85,53,179,53,282xm271,-729v0,303,258,560,560,560v300,0,559,-260,559,-560v0,-300,-261,-560,-559,-560v-302,0,-560,259,-560,560","w":1661},"\u00aa":{"d":"96,-927v0,-289,250,-537,537,-537v139,0,260,47,363,140r0,-140r175,0r0,1074r-175,0r0,-140v-103,93,-224,140,-363,140v-289,0,-537,-248,-537,-537xm300,-786v66,158,261,281,473,194v126,-51,223,-164,223,-335v0,-169,-100,-278,-223,-333v-145,-66,-318,-1,-395,78v-83,85,-138,253,-78,396","w":1333},"\u00ab":{"d":"1472,-218r0,215r-884,-640r884,-640r0,216r-586,424xm897,-218r0,215r-884,-640r884,-640r0,216r-586,424","w":1585},"\u00ac":{"d":"508,-253r0,-191r-496,0r0,-155r671,0r0,346r-175,0","w":846},"\u00ad":{"d":"161,-444r0,-155r669,0r0,155r-669,0","w":993},"\u00ae":{"d":"834,-726v-90,98,-299,171,-473,93v-148,-66,-265,-194,-265,-398v0,-203,118,-333,265,-399v104,-45,232,-47,335,0v147,67,265,197,265,399v0,131,-59,232,-127,305xm752,-788v96,-86,135,-231,80,-370v-57,-143,-245,-256,-431,-177v-113,48,-202,149,-202,304v0,155,89,255,202,304v115,50,248,27,334,-47r-109,0r-133,-189r0,189r-111,0r0,-517r197,0v92,6,157,64,157,157v0,77,-53,139,-119,154xm625,-1134v0,-22,-23,-45,-46,-45r-86,0r0,91v58,-1,132,13,132,-46","w":1056},"\u00af":{"d":"161,-1494r0,-155r669,0r0,155r-669,0","w":993},"\u00b0":{"d":"567,-1140v0,-88,-60,-149,-148,-149v-89,0,-149,59,-149,149v0,90,59,149,149,149v89,0,148,-60,148,-149xm122,-1265v56,-143,230,-246,422,-173v141,54,244,240,172,424v-55,140,-239,244,-423,172v-141,-55,-243,-239,-171,-423","w":837},"\u00b1":{"d":"47,-250r803,0r0,155r-803,0r0,-155xm47,-831r324,0r0,-325r155,0r0,325r324,0r0,155r-324,0r0,324r-155,0r0,-324r-324,0r0,-155","w":897},"\u00b2":{"d":"249,-1213v-2,58,44,107,96,115r-79,120v-112,-43,-194,-189,-136,-336v44,-111,194,-198,338,-135v88,38,152,118,156,239v3,91,-60,166,-100,227r-174,262r274,0r0,139r-535,0r376,-567v46,-75,-3,-186,-96,-181v-71,3,-118,46,-120,117","w":746},"\u00b3":{"d":"338,-1328v-73,0,-111,57,-119,127r-139,0v7,-121,70,-207,160,-246v147,-63,290,26,334,137v42,106,17,221,-60,286v110,85,96,281,5,368v-61,58,-183,103,-281,54v-89,-44,-154,-128,-157,-255r139,0v4,77,43,138,118,138v70,0,118,-48,118,-118v0,-74,-62,-112,-137,-117r0,-140v77,-4,137,-43,137,-117v0,-70,-49,-117,-118,-117","w":707},"\u00b4":{"d":"20,-1230r247,-247r123,124r-246,246","w":409},"\u00b5":{"d":"988,-389v15,130,98,213,236,220r0,174v-148,-4,-252,-65,-325,-157v-69,90,-171,157,-324,157v-88,0,-168,-25,-239,-76r0,471r-175,0r0,-1469r175,0r0,680r4,0v15,130,97,220,235,220v138,0,236,-89,236,-220r0,-680r175,0r0,680r2,0","w":1230},"\u03bc":{"d":"988,-389v15,130,98,213,236,220r0,174v-148,-4,-252,-65,-325,-157v-69,90,-171,157,-324,157v-88,0,-168,-25,-239,-76r0,471r-175,0r0,-1469r175,0r0,680r4,0v15,130,97,220,235,220v138,0,236,-89,236,-220r0,-680r175,0r0,680r2,0","w":1230},"\u00b6":{"d":"797,5r0,-1293r-169,0r0,1293r-175,0r0,-647v-195,-3,-320,-110,-383,-250v-44,-97,-44,-223,0,-320v64,-139,185,-252,378,-252r524,0r0,1469r-175,0","w":1135},"\u00b7":{"d":"161,-465r0,-173r175,0r0,173r-175,0","w":506},"\u00b8":{"d":"161,179r0,-348r175,0r0,348r-175,0","w":506},"\u00b9":{"d":"185,-568r0,-668r-26,47r-159,0r149,-267r180,0r0,888r-144,0","w":495},"\u00ba":{"d":"96,-930v0,-358,377,-655,744,-494v183,80,331,242,331,494v0,252,-146,414,-330,494v-367,160,-745,-134,-745,-494xm300,-789v66,158,261,280,473,193v126,-51,223,-163,223,-334v0,-169,-100,-279,-223,-334v-145,-66,-318,-1,-395,78v-83,85,-138,254,-78,397","w":1265},"\u00bb":{"d":"161,-1068r0,-215r884,640r-884,640r0,-216r586,-424xm736,-1068r0,-215r884,640r-884,640r0,-216r586,-424","w":1633},"\u00bc":{"d":"278,-573r0,-589r-195,0r171,-308r216,0r0,897r-192,0xm1048,-403r0,-170r-87,170r87,0xm1048,3r0,-220r-405,0r377,-679r215,0r-122,218r123,0r0,275r88,0r0,186r-88,0r0,220r-188,0xm1239,-1464r-816,1467r-199,0r815,-1467r200,0","w":1429},"\u00bd":{"d":"281,-565r0,-589r-195,0r171,-308r216,0r0,897r-192,0xm1093,-372v-94,-62,-160,-125,-160,-254v0,-127,73,-212,167,-247v194,-72,375,50,375,254v0,123,-86,206,-141,289r-97,146r238,0r0,187r-585,0r383,-568v35,-63,0,-142,-68,-142v-46,0,-88,38,-85,83v3,51,31,63,75,95xm1262,-1464r-816,1467r-199,0r815,-1467r200,0","w":1577},"\u00be":{"d":"94,-1160v9,-183,92,-302,273,-308v146,-5,272,125,272,270v0,71,-22,131,-66,179v95,95,77,276,-15,368v-101,101,-294,100,-381,1v-48,-55,-82,-133,-81,-239r187,0v1,75,13,131,84,131v46,0,86,-37,84,-85v-2,-68,-56,-83,-129,-83r0,-188v75,-1,129,-14,129,-84v0,-50,-35,-83,-84,-83v-69,0,-80,55,-88,121r-185,0xm1139,-403r0,-157r-87,157r87,0xm1139,3r0,-220r-405,0r377,-679r215,0r-122,218r123,0r0,275r87,0r0,186r-87,0r0,220r-188,0xm1311,-1464r-816,1467r-199,0r815,-1467r200,0","w":1519},"\u00bf":{"d":"1119,-533v9,357,-377,656,-745,495v-184,-81,-330,-242,-330,-495v0,-226,122,-376,270,-467v54,-32,114,-53,177,-63r0,-48r183,0r0,215v-93,0,-170,-3,-238,30v-120,58,-217,166,-217,333v0,170,99,277,222,333v145,66,322,4,397,-78v57,-62,105,-144,106,-255r175,0xm674,-1466r0,173r-175,0r0,-173r175,0","w":1131},"\u00c0":{"d":"476,-1464r250,0r437,1469r-183,0r-52,-174r-655,0r-52,174r-182,0xm325,-344r551,0r-275,-927xm647,-1502r-247,-247r124,-123r246,246","w":1194},"\u00c1":{"d":"461,-1464r250,0r437,1469r-183,0r-52,-174r-655,0r-52,174r-182,0xm310,-344r551,0r-275,-927xm487,-1648r247,-247r123,124r-246,246","w":1200},"\u00c2":{"d":"477,-1464r250,0r437,1469r-183,0r-52,-174r-655,0r-52,174r-182,0xm326,-344r551,0r-275,-927xm570,-1530r-215,0r235,-329r244,329r-216,0r-28,-31","w":1201},"\u00c3":{"d":"482,-1464r250,0r437,1469r-183,0r-52,-174r-655,0r-52,174r-182,0xm331,-344r551,0r-275,-927xm727,-1773v40,0,69,-55,33,-86r187,0v16,122,-49,202,-135,240v-92,40,-187,10,-249,-55v-41,-43,-111,31,-64,71r0,2r-186,0v-16,-120,49,-202,133,-240v92,-41,198,-6,246,50v11,13,24,18,35,18xm506,-1601r-1,-1","w":1221},"\u00c4":{"d":"468,-1464r250,0r437,1469r-183,0r-52,-174r-655,0r-52,174r-182,0xm317,-344r551,0r-275,-927xm854,-1689v-58,0,-87,-29,-87,-87v0,-59,29,-88,87,-88v59,0,88,29,88,88v0,58,-29,87,-88,87xm368,-1689v-58,0,-87,-29,-87,-87v0,-59,29,-88,87,-88v59,0,88,29,88,88v0,58,-29,87,-88,87","w":1187},"\u00c5":{"d":"461,-1327v-122,-65,-203,-242,-133,-405v48,-112,145,-199,298,-199v151,0,250,89,298,199v69,159,-12,342,-132,403r397,1334r-183,0r-52,-174r-655,0r-52,174r-182,0xm351,-344r551,0r-275,-927xm774,-1607v0,-88,-60,-149,-148,-149v-89,0,-149,59,-149,149v0,70,46,127,105,143r87,0v58,-15,105,-74,105,-143","w":1253},"\u00c6":{"d":"1633,5r-715,0r0,-159r-604,0r-88,159r-199,0r815,-1469r791,0r0,175r-540,0r0,472r379,0r0,175r-379,0r0,473r540,0r0,174xm918,-1241r-518,933r518,0r0,-933","w":1745},"\u00c7":{"d":"809,-169v248,-8,401,-132,494,-298r192,0v-104,250,-305,435,-623,469r0,177r-175,0r0,-181v-334,-40,-623,-363,-623,-727v0,-465,456,-863,958,-699v219,71,381,228,463,437r-192,0v-95,-164,-246,-290,-494,-298v-302,-9,-560,259,-560,560v0,303,258,568,560,560","w":1537},"\u00c8":{"d":"1068,5r-949,0r0,-1469r949,0r0,175r-774,0r0,472r613,0r0,175r-613,0r0,473r774,0r0,174xm584,-1502r-247,-247r124,-123r246,246","w":1076},"\u00c9":{"d":"1050,5r-949,0r0,-1469r949,0r0,175r-774,0r0,472r613,0r0,175r-613,0r0,473r774,0r0,174xm435,-1620r247,-247r123,124r-246,246","w":1072},"\u00ca":{"d":"1059,5r-949,0r0,-1469r949,0r0,175r-774,0r0,472r613,0r0,175r-613,0r0,473r774,0r0,174xm572,-1530r-215,0r235,-329r244,329r-216,0r-28,-31","w":1079},"\u00cb":{"d":"1065,5r-949,0r0,-1469r949,0r0,175r-774,0r0,472r613,0r0,175r-613,0r0,473r774,0r0,174xm852,-1681v-61,0,-92,-31,-92,-93v0,-63,31,-94,92,-94v62,0,93,31,93,94v0,62,-31,93,-93,93xm339,-1681v-61,0,-92,-31,-92,-93v0,-63,31,-94,92,-94v62,0,93,31,93,94v0,62,-31,93,-93,93","w":1080},"\u00cc":{"d":"171,5r0,-1469r175,0r0,1469r-175,0xm255,-1502r-247,-247r124,-123r246,246","w":464},"\u00cd":{"d":"116,5r0,-1469r175,0r0,1469r-175,0xm73,-1666r218,-247r152,124r-246,246","w":452},"\u00ce":{"d":"167,5r0,-1469r175,0r0,1469r-175,0xm234,-1535r-215,0r235,-329r244,329r-216,0r-28,-31","w":513},"\u00cf":{"d":"246,5r0,-1469r175,0r0,1469r-175,0xm578,-1693v-58,0,-87,-29,-87,-87v0,-59,29,-88,87,-88v59,0,88,29,88,88v0,58,-29,87,-88,87xm92,-1693v-58,0,-87,-29,-87,-87v0,-59,29,-88,87,-88v59,0,88,29,88,88v0,58,-29,87,-88,87","w":670},"\u00d0":{"d":"1332,-729v0,396,-339,745,-735,734r-389,0r0,-642r-99,0r0,-155r99,0r0,-672r389,0v304,-12,583,212,681,453v36,85,54,179,54,282xm811,-1248v-118,-51,-267,-39,-428,-41r0,497r529,0r0,155r-529,0r0,468v164,-2,312,11,431,-45v189,-89,334,-252,343,-515v8,-231,-164,-440,-346,-519","w":1417},"\u00d1":{"d":"298,5r-175,0r0,-1469r175,0r799,1161r0,-1161r175,0r0,1469r-175,0r-799,-1160r0,1160xm762,-1773v40,0,69,-55,33,-86r187,0v16,122,-49,202,-135,240v-92,40,-187,10,-249,-55v-41,-43,-111,31,-64,71r0,2r-186,0v-16,-120,48,-202,132,-240v92,-41,199,-6,247,50v11,13,24,18,35,18xm541,-1601r-1,-1","w":1388},"\u00d2":{"d":"1530,-729v0,396,-339,734,-734,734v-397,0,-735,-338,-735,-734v0,-395,339,-735,735,-735v303,0,582,213,680,453v36,85,54,179,54,282xm236,-729v0,303,258,560,560,560v300,0,559,-260,559,-560v0,-300,-261,-560,-559,-560v-302,0,-560,259,-560,560xm817,-1502r-247,-247r124,-123r246,246","w":1585},"\u00d3":{"d":"1526,-729v0,396,-339,734,-734,734v-397,0,-735,-338,-735,-734v0,-395,339,-735,735,-735v303,0,582,213,680,453v36,85,54,179,54,282xm232,-729v0,303,258,560,560,560v300,0,559,-260,559,-560v0,-300,-261,-560,-559,-560v-302,0,-560,259,-560,560xm617,-1630r247,-247r123,124r-246,246","w":1585},"\u00d4":{"d":"1529,-729v0,396,-339,734,-734,734v-397,0,-735,-338,-735,-734v0,-395,339,-735,735,-735v303,0,583,213,681,453v36,85,53,179,53,282xm235,-729v0,303,258,560,560,560v300,0,559,-260,559,-560v0,-300,-261,-560,-559,-560v-302,0,-560,259,-560,560xm770,-1530r-215,0r235,-329r244,329r-216,0r-28,-31","w":1589},"\u00d5":{"d":"1535,-729v0,396,-339,734,-734,734v-397,0,-735,-338,-735,-734v0,-395,339,-735,735,-735v303,0,583,213,681,453v36,85,53,179,53,282xm241,-729v0,303,258,560,560,560v300,0,559,-260,559,-560v0,-300,-261,-560,-559,-560v-302,0,-560,259,-560,560xm896,-1773v40,0,69,-55,33,-86r187,0v16,122,-49,202,-135,240v-92,40,-187,10,-249,-55v-41,-43,-111,31,-64,71r0,2r-186,0v-16,-120,48,-202,132,-240v92,-41,199,-6,247,50v11,13,24,18,35,18xm675,-1601r-1,-1","w":1601},"\u00d6":{"d":"1536,-729v0,396,-339,734,-734,734v-397,0,-735,-338,-735,-734v0,-395,339,-735,735,-735v303,0,582,213,680,453v36,85,54,179,54,282xm242,-729v0,303,258,560,560,560v300,0,559,-260,559,-560v0,-300,-261,-560,-559,-560v-302,0,-560,259,-560,560xm1033,-1591v-58,0,-87,-29,-87,-87v0,-59,29,-88,87,-88v59,0,88,29,88,88v0,58,-29,87,-88,87xm547,-1591v-58,0,-87,-29,-87,-87v0,-59,29,-88,87,-88v59,0,88,29,88,88v0,58,-29,87,-88,87","w":1602},"\u00d7":{"d":"223,-860r229,229r230,-230r109,110r-229,230r229,229r-110,109r-229,-229r-229,229r-110,-109r229,-229r-229,-229","w":904},"\u00d8":{"d":"1565,-729v0,396,-339,734,-734,734v-397,0,-735,-338,-735,-734v0,-395,339,-735,735,-735v303,0,583,213,681,453v36,85,53,179,53,282xm636,-201v472,162,913,-301,700,-772v-34,-76,-90,-141,-163,-198xm1021,-1257v-387,-136,-750,165,-750,528v0,177,71,324,214,442","w":1661},"\u00d9":{"d":"931,-406v-6,192,-112,315,-252,378v-98,43,-222,44,-319,0v-140,-63,-251,-185,-251,-378r0,-1058r165,0r10,1058v3,111,62,187,144,218v170,63,328,-43,328,-218r0,-1058r175,0r0,1058xm519,-1502r-247,-247r124,-123r246,246","w":1019},"\u00da":{"d":"912,-406v-6,192,-112,315,-252,378v-98,43,-221,44,-318,0v-140,-63,-252,-185,-252,-378r0,-1058r165,0r10,1058v3,111,62,187,144,218v170,63,328,-43,328,-218r0,-1058r175,0r0,1058xm364,-1616r247,-247r123,124r-246,246","w":1020},"\u00db":{"d":"925,-406v-6,192,-112,315,-252,378v-98,43,-222,44,-319,0v-140,-63,-251,-185,-251,-378r0,-1058r165,0r10,1058v3,111,62,187,144,218v170,63,328,-43,328,-218r0,-1058r175,0r0,1058xm491,-1530r-215,0r235,-329r244,329r-216,0r-28,-31","w":1028},"\u00dc":{"d":"943,-406v-6,192,-112,315,-252,378v-98,43,-222,44,-319,0v-140,-63,-251,-185,-251,-378r0,-1058r165,0r10,1058v3,111,62,187,144,218v170,63,328,-43,328,-218r0,-1058r175,0r0,1058xm779,-1573v-58,0,-87,-29,-87,-87v0,-59,29,-88,87,-88v59,0,88,29,88,88v0,58,-29,87,-88,87xm293,-1573v-58,0,-87,-29,-87,-87v0,-59,29,-88,87,-88v59,0,88,29,88,88v0,58,-29,87,-88,87","w":1066},"\u00dd":{"d":"220,-1464r425,586r424,-586r217,0r-554,763r0,706r-175,0r0,-706r-553,-763r216,0xm511,-1625r247,-247r123,124r-246,246","w":1293},"\u00de":{"d":"699,-315r-363,0r0,320r-175,0r0,-1469r175,0r0,327r363,0v192,5,316,114,379,253v44,98,43,219,0,317v-63,140,-186,252,-379,252xm336,-962r0,472r363,0v111,-3,186,-62,217,-144v63,-169,-44,-328,-217,-328r-363,0","w":1110},"\u00df":{"d":"144,4r-1,-1057v6,-192,112,-316,252,-379v98,-43,219,-44,317,0v140,63,253,186,253,379v0,135,-52,243,-157,324v144,108,197,295,124,482v-69,176,-289,309,-526,225r0,-200v87,81,243,57,314,-16v54,-56,93,-167,51,-259v-37,-80,-106,-142,-217,-145r0,-175v111,-3,186,-62,218,-144v78,-197,-101,-388,-309,-309v-82,31,-145,105,-145,216r0,1058r-174,0","w":1076},"\u00e0":{"d":"61,-532v0,-289,250,-537,537,-537v139,0,260,47,363,140r0,-140r175,0r0,1074r-175,0r0,-140v-103,93,-224,140,-363,140v-289,0,-537,-248,-537,-537xm264,-391v66,158,262,280,474,193v126,-51,223,-163,223,-334v0,-169,-100,-279,-223,-334v-145,-66,-319,-1,-396,78v-83,85,-138,254,-78,397xm621,-1107r-247,-247r124,-123r246,246","w":1222},"\u00e1":{"d":"45,-532v0,-289,250,-537,537,-537v139,0,260,47,363,140r0,-140r175,0r0,1074r-175,0r0,-140v-103,93,-224,140,-363,140v-289,0,-537,-248,-537,-537xm248,-391v66,158,262,280,474,193v126,-51,223,-163,223,-334v0,-169,-100,-279,-223,-334v-145,-66,-319,-1,-396,78v-83,85,-138,254,-78,397xm461,-1235r247,-247r123,124r-246,246","w":1228},"\u00e2":{"d":"54,-532v0,-289,250,-537,537,-537v139,0,260,47,363,140r0,-140r175,0r0,1074r-175,0r0,-140v-103,93,-224,140,-363,140v-289,0,-537,-248,-537,-537xm258,-391v66,158,261,280,473,193v126,-51,223,-163,223,-334v0,-169,-100,-279,-223,-334v-145,-66,-318,-1,-395,78v-83,85,-138,254,-78,397xm587,-1135r-215,0r235,-329r244,329r-216,0r-28,-31","w":1228},"\u00e3":{"d":"69,-532v0,-289,250,-537,537,-537v139,0,260,47,363,140r0,-140r175,0r0,1074r-175,0r0,-140v-103,93,-224,140,-363,140v-289,0,-537,-248,-537,-537xm272,-391v66,158,262,280,474,193v126,-51,223,-163,223,-334v0,-169,-100,-279,-223,-334v-145,-66,-319,-1,-396,78v-83,85,-138,254,-78,397xm764,-1378v40,0,69,-55,33,-86r187,0v16,122,-49,202,-135,240v-92,40,-187,10,-249,-55v-41,-43,-111,31,-64,71r0,2r-186,0v-16,-120,48,-202,132,-240v92,-41,199,-6,247,50v11,13,24,18,35,18xm543,-1206r-1,-1","w":1277},"\u00e4":{"d":"63,-532v0,-289,250,-537,537,-537v139,0,260,47,363,140r0,-140r175,0r0,1074r-175,0r0,-140v-103,93,-224,140,-363,140v-289,0,-537,-248,-537,-537xm266,-391v66,158,262,280,474,193v126,-51,223,-163,223,-334v0,-169,-100,-279,-223,-334v-145,-66,-319,-1,-396,78v-83,85,-138,254,-78,397xm851,-1289v-58,0,-87,-29,-87,-87v0,-59,29,-88,87,-88v59,0,88,29,88,88v0,58,-29,87,-88,87xm365,-1289v-58,0,-87,-29,-87,-87v0,-59,29,-88,87,-88v59,0,88,29,88,88v0,58,-29,87,-88,87","w":1248},"\u00e5":{"d":"75,-532v6,-241,124,-382,284,-475v-75,-85,-99,-219,-49,-335v48,-111,144,-199,297,-199v151,0,249,88,297,199v50,115,27,245,-48,331v41,21,81,48,119,82r0,-140r175,0r0,1074r-175,0r0,-140v-103,93,-224,140,-363,140v-289,0,-545,-248,-537,-537xm278,-391v63,159,262,280,474,193v126,-51,223,-163,223,-334v0,-167,-97,-275,-217,-331v-87,-41,-204,-41,-292,0v-120,56,-216,164,-216,331v0,50,10,96,28,141xm755,-1217v0,-88,-60,-144,-148,-149v-128,-7,-193,157,-111,250v28,32,67,54,129,47v77,-9,130,-66,130,-148","w":1262},"\u00e6":{"d":"439,-38v-207,-91,-361,-290,-322,-582r728,0r0,-216v-59,-39,-125,-59,-198,-59v-158,0,-257,84,-318,188r-191,0v79,-204,239,-362,509,-362v107,0,203,27,286,82v134,-91,335,-111,495,-39v183,82,330,242,330,494v0,31,-3,60,-8,88r-730,0r0,216v59,39,126,59,200,59v158,0,256,-85,318,-188r191,0v-79,204,-238,362,-509,362v-107,0,-202,-27,-287,-81v-136,90,-333,109,-494,38xm1572,-619v-47,-155,-160,-275,-352,-275v-75,0,-141,20,-200,60r0,215r552,0xm295,-445v34,146,175,277,352,275v73,0,139,-19,198,-58r0,-217r-550,0","w":1866},"\u00e7":{"d":"1115,-357v-70,187,-214,323,-436,357r0,179r-175,0r0,-183v-199,-39,-337,-171,-402,-345v-138,-368,158,-729,504,-720v269,7,430,159,509,362r-191,0v-63,-102,-160,-187,-318,-187v-170,0,-282,97,-334,222v-86,207,34,410,188,474v49,20,96,31,156,29v153,-5,247,-88,308,-188r191,0","w":1155},"\u00e8":{"d":"598,-169v158,0,256,-85,318,-188r191,0v-79,204,-239,353,-509,362v-289,10,-537,-248,-537,-537v0,-358,378,-655,745,-494v183,80,330,242,330,494v0,31,-3,60,-8,88r-882,0v46,157,159,275,352,275xm950,-619v-47,-185,-242,-330,-472,-254v-116,39,-199,130,-232,254r704,0xm621,-1107r-247,-247r124,-123r246,246","w":1177},"\u00e9":{"d":"585,-169v158,0,256,-85,318,-188r191,0v-79,204,-239,353,-509,362v-289,10,-537,-248,-537,-537v0,-358,377,-655,744,-494v183,80,331,242,331,494v0,31,-3,60,-8,88r-882,0v46,157,159,275,352,275xm937,-619v-47,-185,-243,-330,-473,-254v-116,39,-198,130,-231,254r704,0xm450,-1212r247,-247r123,124r-246,246","w":1180},"\u00ea":{"d":"596,-169v158,0,256,-85,318,-188r191,0v-79,204,-239,353,-509,362v-289,10,-537,-248,-537,-537v0,-358,378,-655,745,-494v183,80,330,242,330,494v0,31,-3,60,-8,88r-882,0v46,157,159,275,352,275xm948,-619v-47,-185,-242,-330,-472,-254v-116,39,-199,130,-232,254r704,0xm546,-1135r-215,0r235,-329r244,329r-216,0r-28,-31","w":1180},"\u00eb":{"d":"600,-169v158,0,256,-85,318,-188r191,0v-79,204,-239,353,-509,362v-289,10,-537,-248,-537,-537v0,-358,378,-655,745,-494v183,80,330,242,330,494v0,31,-3,60,-8,88r-882,0v46,157,159,275,352,275xm952,-619v-47,-185,-242,-330,-472,-254v-116,39,-199,130,-232,254r704,0xm851,-1289v-58,0,-87,-29,-87,-87v0,-59,29,-88,87,-88v59,0,88,29,88,88v0,58,-29,87,-88,87xm365,-1289v-58,0,-87,-29,-87,-87v0,-59,29,-88,87,-88v59,0,88,29,88,88v0,58,-29,87,-88,87","w":1195},"\u00ec":{"d":"137,5r0,-1074r175,0r0,1074r-175,0xm287,-1107r-247,-247r124,-123r246,246","w":433},"\u00ed":{"d":"119,5r0,-1074r175,0r0,1074r-175,0xm22,-1230r272,-247r98,124r-246,246","w":435},"\u00ee":{"d":"164,5r0,-1074r175,0r0,1074r-175,0xm230,-1135r-215,0r235,-329r244,329r-216,0r-28,-31","w":506},"\u00ef":{"d":"145,5r0,-1074r175,0r0,1074r-175,0xm107,-1289v-58,0,-87,-29,-87,-87v0,-59,29,-88,87,-88v59,0,88,29,88,88v0,58,-29,87,-88,87xm347,-1289v-58,0,-87,-29,-87,-87v0,-59,29,-88,87,-88v59,0,88,29,88,88v0,58,-29,87,-88,87","w":459},"\u00f0":{"d":"101,-401v1,-165,82,-279,188,-349v72,-47,145,-68,239,-66r-111,-171r-238,0r0,-175r124,0r-196,-302r207,0r197,302r282,0r0,175r-169,0r219,337v80,92,109,270,49,403v-63,141,-184,253,-377,253v-194,0,-319,-110,-382,-250v-21,-49,-32,-102,-32,-157xm600,-624v-191,-78,-389,108,-305,314v41,100,176,177,309,123v101,-41,184,-180,126,-313v-25,-57,-72,-100,-130,-124","w":959},"\u00f1":{"d":"642,-877v-161,-60,-313,48,-323,202r-3,0r0,680r-175,0r0,-1074r175,0r0,77v108,-81,259,-103,394,-46v139,59,256,181,256,363r-1,680r-175,0r0,-680v-10,-100,-68,-172,-148,-202xm618,-1378v40,0,69,-55,33,-86r187,0v16,122,-49,202,-135,240v-92,40,-187,10,-249,-55v-41,-43,-111,31,-64,71r0,2r-186,0v-16,-120,48,-202,132,-240v92,-41,199,-6,247,50v11,13,24,18,35,18xm397,-1206r-1,-1","w":1082},"\u00f2":{"d":"61,-532v0,-358,378,-655,745,-494v183,80,330,242,330,494v0,252,-146,414,-330,494v-367,160,-745,-134,-745,-494xm264,-391v66,158,262,280,474,193v126,-51,223,-163,223,-334v0,-169,-100,-279,-223,-334v-145,-66,-319,-1,-396,78v-83,85,-138,254,-78,397xm621,-1107r-247,-247r124,-123r246,246","w":1183},"\u00f3":{"d":"46,-532v0,-358,377,-655,744,-494v183,80,331,242,331,494v0,252,-146,414,-330,494v-367,160,-745,-134,-745,-494xm250,-391v66,158,261,280,473,193v126,-51,223,-163,223,-334v0,-169,-100,-279,-223,-334v-145,-66,-318,-1,-395,78v-83,85,-138,254,-78,397xm448,-1248r247,-247r123,124r-246,246","w":1182},"\u00f4":{"d":"55,-532v0,-358,378,-655,745,-494v183,80,330,242,330,494v0,252,-146,414,-330,494v-367,160,-745,-134,-745,-494xm258,-391v66,158,262,280,474,193v126,-51,223,-163,223,-334v0,-169,-100,-279,-223,-334v-145,-66,-319,-1,-396,78v-83,85,-138,254,-78,397xm577,-1135r-215,0r235,-329r244,329r-216,0r-28,-31","w":1186},"\u00f5":{"d":"77,-532v0,-358,378,-655,745,-494v183,80,330,242,330,494v0,252,-146,414,-330,494v-367,160,-745,-134,-745,-494xm280,-391v66,158,262,280,474,193v126,-51,223,-163,223,-334v0,-169,-100,-279,-223,-334v-145,-66,-319,-1,-396,78v-83,85,-138,254,-78,397xm711,-1378v40,0,69,-55,33,-86r187,0v16,122,-49,202,-135,240v-92,40,-187,10,-249,-55v-41,-43,-111,31,-64,71r0,2r-186,0v-16,-120,49,-202,133,-240v92,-41,198,-6,246,50v11,13,24,18,35,18xm490,-1206r-1,-1","w":1229},"\u00f6":{"d":"63,-532v0,-358,378,-655,745,-494v183,80,330,242,330,494v0,252,-146,414,-330,494v-367,160,-745,-134,-745,-494xm266,-391v66,158,262,280,474,193v126,-51,223,-163,223,-334v0,-169,-100,-279,-223,-334v-145,-66,-319,-1,-396,78v-83,85,-138,254,-78,397xm851,-1289v-58,0,-87,-29,-87,-87v0,-59,29,-88,87,-88v59,0,88,29,88,88v0,58,-29,87,-88,87xm365,-1289v-58,0,-87,-29,-87,-87v0,-59,29,-88,87,-88v59,0,88,29,88,88v0,58,-29,87,-88,87","w":1202},"\u00f7":{"d":"18,-444r0,-155r803,0r0,155r-803,0xm313,-672r0,-173r175,0r0,173r-175,0xm313,-203r0,-173r175,0r0,173r-175,0","w":831},"\u00f8":{"d":"96,-532v0,-358,377,-655,744,-494v183,80,331,242,331,494v0,252,-146,414,-330,494v-367,160,-745,-134,-745,-494xm823,-841v-92,-59,-224,-72,-331,-25v-123,55,-221,164,-221,334v0,71,17,134,52,189xm447,-219v92,57,221,68,326,21v124,-55,223,-163,223,-334v0,-67,-17,-129,-50,-184","w":1265},"\u00f9":{"d":"508,-169v137,0,220,-90,235,-220r4,0r0,-680r175,0r0,1074r-175,0r0,-76v-110,80,-260,102,-395,45v-140,-59,-255,-179,-255,-363r0,-680r175,0r0,680v15,130,98,220,236,220xm512,-1107r-247,-247r124,-123r246,246","w":1007},"\u00fa":{"d":"486,-169v137,0,220,-90,235,-220r4,0r0,-680r175,0r0,1074r-175,0r0,-76v-110,80,-260,102,-395,45v-140,-59,-255,-179,-255,-363r0,-680r175,0r0,680v15,130,98,220,236,220xm327,-1240r247,-247r123,124r-246,246","w":1009},"\u00fb":{"d":"498,-169v137,0,220,-90,235,-220r4,0r0,-680r175,0r0,1074r-175,0r0,-76v-110,80,-260,102,-395,45v-140,-59,-255,-179,-255,-363r0,-680r175,0r0,680v15,130,98,220,236,220xm475,-1127r-215,0r235,-329r244,329r-216,0r-28,-31","w":1014},"\u00fc":{"d":"514,-169v137,0,220,-90,235,-220r4,0r0,-680r175,0r0,1074r-175,0r0,-76v-110,80,-260,102,-395,45v-140,-59,-255,-179,-255,-363r0,-680r175,0r0,680v15,130,98,220,236,220xm269,-1289v-58,0,-87,-29,-87,-87v0,-59,29,-88,87,-88v59,0,88,29,88,88v0,58,-29,87,-88,87xm755,-1289v-58,0,-87,-29,-87,-87v0,-59,29,-88,87,-88v59,0,88,29,88,88v0,58,-29,87,-88,87","w":1049},"\u00fd":{"d":"338,5r-319,-1074r182,0r262,880r263,-880r182,0r-319,1074r-2,0r-117,393r-182,0r117,-393r-67,0xm338,-1230r247,-247r123,124r-246,246","w":931},"\u00fe":{"d":"906,-38v-202,87,-426,40,-570,-97r0,533r-175,0r0,-1866r175,0r0,539v144,-138,368,-185,570,-97v184,80,330,242,330,494v0,252,-146,415,-330,494xm364,-391v66,158,262,280,474,193v126,-51,223,-163,223,-334v0,-169,-100,-279,-223,-334v-145,-66,-319,-1,-396,78v-83,85,-138,254,-78,397","w":1236},"\u00ff":{"d":"344,5r-319,-1074r182,0r262,880r263,-880r182,0r-319,1074r-2,0r-117,393r-182,0r117,-393r-67,0xm705,-1294v-58,0,-87,-29,-87,-87v0,-59,29,-88,87,-88v59,0,88,29,88,88v0,58,-29,87,-88,87xm219,-1294v-58,0,-87,-29,-87,-87v0,-59,29,-88,87,-88v59,0,88,29,88,88v0,58,-29,87,-88,87","w":934},"\u0100":{"d":"494,-1464r250,0r437,1469r-183,0r-52,-174r-655,0r-52,174r-182,0xm343,-344r551,0r-275,-927xm265,-1494r0,-155r669,0r0,155r-669,0","w":1234},"\u0101":{"d":"76,-532v0,-289,250,-537,537,-537v139,0,260,47,363,140r0,-140r175,0r0,1074r-175,0r0,-140v-103,93,-224,140,-363,140v-289,0,-537,-248,-537,-537xm280,-391v66,158,261,280,473,193v126,-51,223,-163,223,-334v0,-169,-100,-279,-223,-334v-145,-66,-318,-1,-395,78v-83,85,-138,254,-78,397xm281,-1165r0,-155r669,0r0,155r-669,0","w":1279},"\u0102":{"d":"619,-1682v89,0,143,-60,148,-149r175,0v-4,152,-87,251,-198,297v-187,77,-367,-30,-422,-171v-15,-40,-26,-81,-26,-126r174,0v5,90,59,149,149,149xm508,-1464r250,0r437,1469r-183,0r-52,-174r-655,0r-52,174r-182,0xm357,-344r551,0r-275,-927","w":1259},"\u0103":{"d":"632,-1309v89,0,143,-60,148,-149r175,0v-4,152,-87,252,-198,298v-187,77,-368,-31,-423,-172v-15,-40,-25,-81,-25,-126r174,0v5,90,59,149,149,149xm77,-532v0,-289,250,-537,537,-537v139,0,260,47,363,140r0,-140r175,0r0,1074r-175,0r0,-140v-103,93,-224,140,-363,140v-289,0,-537,-248,-537,-537xm280,-391v66,158,262,280,474,193v126,-51,223,-163,223,-334v0,-169,-100,-279,-223,-334v-145,-66,-319,-1,-396,78v-83,85,-138,254,-78,397","w":1279},"\u0104":{"d":"762,274v-72,-167,16,-354,147,-412r-9,-31r-655,0r-52,174r-182,0r437,-1469r250,0r437,1469r-116,0v-61,15,-108,72,-108,144v0,89,60,143,149,148r0,175v-152,-4,-250,-87,-298,-198xm297,-344r551,0r-275,-927","w":1190},"\u0105":{"d":"768,149v2,-131,61,-215,149,-274r0,-10v-103,93,-224,140,-363,140v-289,0,-537,-248,-537,-537v0,-289,250,-537,537,-537v139,0,260,47,363,140r0,-140r175,0r0,1074v-99,-7,-150,62,-150,144v0,89,60,143,149,148r0,175v-152,-4,-247,-88,-297,-198v-17,-39,-26,-81,-26,-125xm220,-391v66,158,262,280,474,193v126,-51,223,-163,223,-334v0,-169,-100,-279,-223,-334v-145,-66,-319,-1,-396,78v-83,85,-138,254,-78,397","w":1251},"\u0106":{"d":"792,-169v248,-8,401,-132,494,-298r192,0v-82,208,-244,366,-462,437v-502,164,-959,-232,-959,-699v0,-465,456,-863,958,-699v219,71,381,228,463,437r-192,0v-95,-164,-246,-290,-494,-298v-302,-9,-560,259,-560,560v0,303,258,568,560,560xm576,-1625r247,-247r123,124r-246,246","w":1511},"\u0107":{"d":"589,-169v158,0,256,-85,318,-188r191,0v-79,204,-239,353,-509,362v-289,10,-537,-248,-537,-537v0,-342,339,-634,706,-510v163,55,282,174,340,335r-191,0v-63,-102,-160,-187,-318,-187v-170,0,-277,99,-333,222v-66,145,-3,321,78,396v62,57,144,107,255,107xm384,-1230r247,-247r123,124r-246,246","w":1135},"\u0108":{"d":"795,-169v248,-8,401,-132,494,-298r192,0v-82,208,-244,366,-462,437v-502,164,-959,-232,-959,-699v0,-465,456,-863,958,-699v219,71,381,228,463,437r-192,0v-95,-164,-246,-290,-494,-298v-302,-9,-560,259,-560,560v0,303,258,568,560,560xm740,-1530r-215,0r235,-329r244,329r-216,0r-28,-31","w":1515},"\u0109":{"d":"594,-169v158,0,256,-85,318,-188r191,0v-79,204,-239,353,-509,362v-289,10,-537,-248,-537,-537v0,-342,338,-634,705,-510v163,55,283,174,341,335r-191,0v-63,-102,-160,-187,-318,-187v-170,0,-278,99,-334,222v-66,145,-3,321,78,396v62,57,145,107,256,107xm549,-1135r-215,0r235,-329r244,329r-216,0r-28,-31","w":1137},"\u010a":{"d":"798,-1551v-58,0,-87,-29,-87,-87v0,-59,29,-88,87,-88v59,0,88,29,88,88v0,58,-29,87,-88,87xm794,-169v248,-8,401,-132,494,-298r192,0v-82,208,-244,366,-462,437v-502,164,-959,-232,-959,-699v0,-465,456,-863,958,-699v219,71,381,228,463,437r-192,0v-95,-164,-246,-290,-494,-298v-302,-9,-560,259,-560,560v0,303,258,568,560,560","w":1506},"\u010b":{"d":"571,-1290v-58,0,-87,-29,-87,-87v0,-59,29,-88,87,-88v59,0,88,29,88,88v0,58,-29,87,-88,87xm579,-169v158,0,256,-85,318,-188r191,0v-79,204,-239,353,-509,362v-289,10,-537,-248,-537,-537v0,-342,339,-634,706,-510v163,55,282,174,340,335r-191,0v-63,-102,-160,-187,-318,-187v-170,0,-277,99,-333,222v-66,145,-3,321,78,396v62,57,144,107,255,107","w":1109},"\u010c":{"d":"810,-1818r215,0r-235,329r-244,-329r216,0r28,31xm797,-169v248,-8,401,-132,494,-298r192,0v-82,208,-244,366,-462,437v-502,164,-959,-232,-959,-699v0,-465,456,-863,958,-699v219,71,381,228,463,437r-192,0v-95,-164,-246,-290,-494,-298v-302,-9,-560,259,-560,560v0,303,258,568,560,560","w":1521},"\u010d":{"d":"603,-1465r215,0r-235,329r-244,-329r216,0r28,31xm599,-169v158,0,256,-85,318,-188r191,0v-79,204,-239,353,-509,362v-289,10,-537,-248,-537,-537v0,-342,339,-634,706,-510v163,55,282,174,340,335r-191,0v-63,-102,-160,-187,-318,-187v-170,0,-277,99,-333,222v-66,145,-3,321,78,396v62,57,144,107,255,107","w":1149},"\u010e":{"d":"532,-1818r215,0r-235,329r-244,-329r216,0r28,31xm1259,-729v0,396,-339,745,-735,734r-389,0r0,-1469r389,0v304,-12,584,212,682,453v36,85,53,179,53,282xm738,-1248v-118,-51,-267,-39,-428,-41r0,1120v164,-2,311,11,430,-45v189,-89,335,-252,344,-515v8,-231,-164,-440,-346,-519","w":1301},"\u010f":{"d":"39,-532v0,-289,250,-537,537,-537v139,0,260,47,363,140r0,-535r175,0r0,1469r-175,0r0,-140v-103,93,-224,140,-363,140v-289,0,-537,-248,-537,-537xm242,-391v66,158,262,280,474,193v126,-51,223,-163,223,-334v0,-169,-100,-279,-223,-334v-145,-66,-319,-1,-396,78v-83,85,-138,254,-78,397xm1274,-1118r0,-348r175,0r0,348r-175,0","w":1534},"\u0110":{"d":"1361,-729v0,396,-339,745,-735,734r-389,0r0,-662r-146,0r0,-155r146,0r0,-652r389,0v304,-12,584,212,682,453v36,85,53,179,53,282xm840,-1248v-118,-51,-267,-39,-428,-41r0,477r348,0r0,155r-348,0r0,488v164,-2,311,11,430,-45v189,-89,335,-252,344,-515v8,-231,-164,-440,-346,-519","w":1448},"\u0111":{"d":"49,-532v0,-289,250,-537,537,-537v139,0,260,47,363,140r0,-241r-538,0r0,-155r538,0r0,-139r175,0r0,139r90,0r0,155r-90,0r0,1175r-175,0r0,-140v-103,93,-224,140,-363,140v-289,0,-537,-248,-537,-537xm252,-391v66,158,262,280,474,193v126,-51,223,-163,223,-334v0,-169,-100,-279,-223,-334v-145,-66,-319,-1,-396,78v-83,85,-138,254,-78,397","w":1335},"\u0112":{"d":"1095,5r-949,0r0,-1469r949,0r0,175r-774,0r0,472r613,0r0,175r-613,0r0,473r774,0r0,174xm281,-1516r0,-155r669,0r0,155r-669,0","w":1138},"\u0113":{"d":"614,-169v158,0,256,-85,318,-188r191,0v-79,204,-239,353,-509,362v-289,10,-537,-248,-537,-537v0,-358,378,-655,745,-494v183,80,330,242,330,494v0,31,-3,60,-8,88r-882,0v46,157,159,275,352,275xm966,-619v-47,-185,-242,-330,-472,-254v-116,39,-199,130,-232,254r704,0xm274,-1163r0,-155r669,0r0,155r-669,0","w":1218},"\u0114":{"d":"633,-1682v89,0,143,-60,148,-149r175,0v-4,152,-87,251,-198,297v-187,77,-367,-30,-422,-171v-15,-40,-26,-81,-26,-126r174,0v5,90,59,149,149,149xm1079,5r-949,0r0,-1469r949,0r0,175r-774,0r0,472r613,0r0,175r-613,0r0,473r774,0r0,174","w":1123},"\u0115":{"d":"621,-1304v89,0,143,-60,148,-149r175,0v-4,152,-87,251,-198,297v-187,77,-367,-30,-422,-171v-15,-40,-26,-81,-26,-126r174,0v5,90,59,149,149,149xm615,-169v158,0,256,-85,318,-188r191,0v-79,204,-239,353,-509,362v-289,10,-537,-248,-537,-537v0,-358,377,-655,744,-494v183,80,331,242,331,494v0,31,-3,60,-8,88r-882,0v46,157,159,275,352,275xm967,-619v-47,-185,-243,-330,-473,-254v-116,39,-198,130,-231,254r704,0","w":1226},"\u0116":{"d":"596,-1540v-58,0,-87,-29,-87,-87v0,-59,29,-88,87,-88v59,0,88,29,88,88v0,58,-29,87,-88,87xm1064,5r-949,0r0,-1469r949,0r0,175r-774,0r0,472r613,0r0,175r-613,0r0,473r774,0r0,174","w":1076},"\u0117":{"d":"569,-1289v-58,0,-87,-29,-87,-87v0,-59,29,-88,87,-88v59,0,88,29,88,88v0,58,-29,87,-88,87xm581,-169v158,0,256,-85,318,-188r191,0v-79,204,-239,353,-509,362v-289,10,-537,-248,-537,-537v0,-358,377,-655,744,-494v183,80,331,242,331,494v0,31,-3,60,-8,88r-882,0v46,157,159,275,352,275xm933,-619v-47,-185,-243,-330,-473,-254v-116,39,-198,130,-231,254r704,0","w":1154},"\u0118":{"d":"1011,5v-88,7,-150,58,-150,150v0,89,60,143,149,148r0,175v-152,-4,-248,-88,-298,-198v-38,-86,-32,-195,10,-275r-660,0r0,-1469r949,0r0,175r-774,0r0,472r613,0r0,175r-613,0r0,473r774,0r0,174","w":1076},"\u0119":{"d":"496,155v0,89,60,143,149,148r0,175v-152,-4,-249,-88,-297,-198v-47,-107,-29,-236,37,-319v-180,-87,-311,-239,-318,-493v-10,-358,378,-655,745,-494v183,80,330,242,330,494v0,31,-3,60,-8,88r-882,0v46,157,159,275,352,275v158,0,256,-85,318,-188r191,0v-75,194,-225,335,-468,360r0,3v-90,5,-149,59,-149,149xm956,-619v-47,-185,-242,-330,-472,-254v-116,39,-199,130,-232,254r704,0","w":1177},"\u011a":{"d":"632,-1818r215,0r-235,329r-244,-329r216,0r28,31xm1065,5r-949,0r0,-1469r949,0r0,175r-774,0r0,472r613,0r0,175r-613,0r0,473r774,0r0,174","w":1089},"\u011b":{"d":"607,-1468r215,0r-235,329r-244,-329r216,0r28,31xm600,-169v158,0,256,-85,318,-188r191,0v-79,204,-239,353,-509,362v-289,10,-537,-248,-537,-537v0,-358,378,-655,745,-494v183,80,330,242,330,494v0,31,-3,60,-8,88r-882,0v46,157,159,275,352,275xm952,-619v-47,-185,-242,-330,-472,-254v-116,39,-199,130,-232,254r704,0","w":1190},"\u011c":{"d":"1530,-729v11,396,-339,734,-734,734v-397,0,-735,-338,-735,-734v0,-465,456,-863,958,-699v219,71,381,228,463,437r-192,0v-95,-164,-246,-290,-494,-298v-302,-9,-560,259,-560,560v0,367,373,673,757,523v183,-72,315,-223,356,-436r-509,0r0,-175r685,0xm768,-1530r-215,0r235,-329r244,329r-216,0r-28,-31","w":1577},"\u011d":{"d":"41,-532v0,-289,250,-537,537,-537v139,0,260,47,363,140r0,-140r175,0r0,1074v-7,251,-147,416,-330,495v-208,90,-436,37,-580,-108r121,-126v98,98,249,132,391,72v125,-53,217,-163,223,-333r0,-140v-103,93,-224,140,-363,140v-289,0,-537,-248,-537,-537xm244,-391v66,158,262,280,474,193v126,-51,223,-163,223,-334v0,-169,-100,-279,-223,-334v-145,-66,-319,-1,-396,78v-83,85,-138,254,-78,397xm566,-1135r-215,0r235,-329r244,329r-216,0r-28,-31","w":1215},"\u011e":{"d":"804,-1704v89,0,143,-60,148,-149r175,0v-4,152,-87,251,-198,297v-187,77,-368,-30,-423,-171v-15,-40,-25,-81,-25,-126r174,0v5,90,59,149,149,149xm1541,-729v11,396,-339,734,-734,734v-397,0,-735,-338,-735,-734v0,-465,456,-863,958,-699v219,71,381,228,463,437r-192,0v-95,-164,-246,-290,-494,-298v-302,-9,-560,259,-560,560v0,367,373,673,757,523v183,-72,315,-223,356,-436r-509,0r0,-175r685,0","w":1600},"\u011f":{"d":"579,-1312v89,0,143,-60,148,-149r175,0v-4,152,-87,251,-198,297v-187,77,-367,-30,-422,-171v-15,-40,-26,-81,-26,-126r174,0v5,90,59,149,149,149xm55,-532v0,-289,250,-537,537,-537v139,0,260,47,363,140r0,-140r175,0r0,1074v-7,251,-147,416,-330,495v-208,90,-436,37,-580,-108r121,-126v98,98,249,132,391,72v125,-53,217,-163,223,-333r0,-140v-103,93,-224,140,-363,140v-289,0,-537,-248,-537,-537xm258,-391v66,158,262,280,474,193v126,-51,223,-163,223,-334v0,-169,-100,-279,-223,-334v-145,-66,-319,-1,-396,78v-83,85,-138,254,-78,397","w":1241},"\u0120":{"d":"787,-1562v-58,0,-87,-29,-87,-87v0,-59,29,-88,87,-88v59,0,88,29,88,88v0,58,-29,87,-88,87xm1529,-729v11,396,-339,734,-734,734v-397,0,-735,-338,-735,-734v0,-465,456,-863,958,-699v219,71,381,228,463,437r-192,0v-95,-164,-246,-290,-494,-298v-302,-9,-560,259,-560,560v0,367,373,673,757,523v183,-72,315,-223,356,-436r-509,0r0,-175r685,0","w":1570},"\u0121":{"d":"576,-1233v-58,0,-87,-29,-87,-87v0,-59,29,-88,87,-88v59,0,88,29,88,88v0,58,-29,87,-88,87xm30,-532v0,-289,250,-537,537,-537v139,0,260,47,363,140r0,-140r175,0r0,1074v-7,251,-148,416,-331,495v-208,90,-435,37,-579,-108r121,-126v98,98,249,132,391,72v125,-53,217,-163,223,-333r0,-140v-103,93,-224,140,-363,140v-289,0,-537,-248,-537,-537xm234,-391v66,158,261,280,473,193v126,-51,223,-163,223,-334v0,-169,-100,-279,-223,-334v-145,-66,-318,-1,-395,78v-83,85,-138,254,-78,397","w":1190},"\u0122":{"d":"775,298v123,4,193,-146,117,-240v-24,-30,-55,-55,-111,-53v-397,14,-735,-338,-735,-734v0,-465,456,-863,958,-699v219,71,381,228,463,437r-192,0v-95,-164,-246,-291,-494,-298v-375,-10,-682,393,-517,777v82,192,252,333,511,343r0,-5v167,14,292,-62,385,-146v85,-77,152,-189,174,-322r-509,0r0,-175r685,0v28,309,-101,525,-275,667v-59,47,-124,84,-197,111v64,83,80,209,34,314v-48,111,-145,192,-297,197r0,-174","w":1572},"\u0123":{"d":"37,-532v0,-289,250,-537,537,-537v139,0,260,47,363,140r0,-140r175,0r0,1074v-7,251,-147,416,-330,495v-208,90,-436,37,-580,-108r121,-126v98,98,249,132,391,72v125,-53,217,-163,223,-333r0,-140v-103,93,-224,140,-363,140v-289,0,-537,-248,-537,-537xm240,-391v66,158,262,280,474,193v126,-51,223,-163,223,-334v0,-169,-100,-279,-223,-334v-145,-66,-319,-1,-396,78v-83,85,-138,254,-78,397xm499,-1115r0,-348r175,0r0,348r-175,0","w":1207},"\u0124":{"d":"287,5r-175,0r0,-1469r175,0r0,647r599,0r0,-647r175,0r0,1469r-175,0r0,-647r-599,0r0,647xm562,-1530r-215,0r235,-329r244,329r-216,0r-28,-31","w":1173},"\u0125":{"d":"528,-894v-137,0,-236,89,-236,219r0,680r-175,0r0,-1469r175,0r0,469v109,-78,258,-99,391,-43v139,59,255,180,255,363r0,680r-175,0r0,-680v-18,-127,-99,-219,-235,-219xm499,-1505r-215,0r235,-329r244,329r-216,0r-28,-31","w":1009},"\u0126":{"d":"113,-1141r0,-155r98,0r0,-168r175,0r0,168r599,0r0,-168r175,0r0,168r73,0r0,155r-73,0r0,1146r-175,0r0,-647r-599,0r0,647r-175,0r0,-1146r-98,0xm985,-817r0,-324r-599,0r0,324r599,0","w":1358},"\u0127":{"d":"604,-894v-137,0,-236,89,-236,219r0,680r-175,0r0,-1202r-70,0r0,-155r70,0r0,-112r175,0r0,112r424,0r0,155r-424,0r0,202v109,-78,258,-99,391,-43v139,59,255,180,255,363r0,680r-175,0r0,-680v-18,-127,-99,-219,-235,-219","w":1096},"\u0128":{"d":"252,5r0,-1469r175,0r0,1469r-175,0xm437,-1773v40,0,69,-55,33,-86r187,0v16,122,-49,202,-135,240v-92,40,-187,10,-249,-55v-41,-43,-111,31,-64,71r0,2r-186,0v-16,-120,49,-202,133,-240v92,-41,198,-6,246,50v11,13,24,18,35,18xm216,-1601r-1,-1","w":680},"\u0129":{"d":"273,5r0,-1074r175,0r0,1074r-175,0xm360,-1289v-58,0,-87,-29,-87,-87v0,-59,29,-88,87,-88v59,0,88,29,88,88v0,58,-29,87,-88,87xm458,-1378v40,0,69,-55,33,-86r187,0v16,122,-49,202,-135,240v-92,40,-187,10,-249,-55v-41,-43,-111,31,-64,71r0,2r-186,0v-16,-120,48,-202,132,-240v92,-41,199,-6,247,50v11,13,24,18,35,18xm237,-1206r-1,-1","w":722},"\u012b":{"d":"133,5r0,-1074r175,0r0,1074r-175,0xm29,-1187r0,-155r391,0r0,155r-391,0","w":444},"\u012c":{"d":"356,-1682v89,0,143,-60,148,-149r175,0v-4,152,-87,251,-198,297v-187,77,-368,-30,-423,-171v-15,-40,-25,-81,-25,-126r174,0v5,90,59,149,149,149xm280,5r0,-1469r175,0r0,1469r-175,0","w":717},"\u012e":{"d":"188,145v0,89,60,143,149,148r0,175v-152,-4,-247,-88,-297,-198v-17,-39,-26,-81,-26,-125v2,-131,60,-214,148,-273r0,-1336r175,0r0,1469r-53,0v-54,19,-96,73,-96,140","w":487},"\u012f":{"d":"175,148v0,89,60,143,149,148r0,175v-152,-4,-248,-88,-298,-198v-17,-39,-25,-81,-25,-125v2,-131,61,-215,149,-274r0,-943r175,0r0,1074r-45,0v-59,16,-105,73,-105,143xm237,-1289v-58,0,-87,-29,-87,-87v0,-59,29,-88,87,-88v59,0,88,29,88,88v0,58,-29,87,-88,87","w":430},"\u0130":{"d":"179,-1591v-58,0,-87,-29,-87,-87v0,-59,29,-88,87,-88v59,0,88,29,88,88v0,58,-29,87,-88,87xm190,141v59,0,88,29,88,88v0,58,-29,87,-88,87v-58,0,-87,-29,-87,-87v0,-59,29,-88,87,-88xm101,5r0,-1469r175,0r0,1469r-175,0","w":383},"\u0131":{"d":"161,5r0,-1074r175,0r0,1074r-175,0","w":506},"\u0132":{"d":"161,5r0,-1469r175,0r0,1469r-175,0xm1244,-406v-6,192,-112,315,-252,378v-98,43,-221,44,-318,0v-140,-63,-246,-185,-252,-378r175,0v3,111,62,187,144,218v170,63,328,-43,328,-218r0,-1058r175,0r0,1058","w":1393},"\u0133":{"d":"156,5r0,-1074r175,0r0,1074r-175,0xm243,-1289v-58,0,-87,-29,-87,-87v0,-59,29,-88,87,-88v59,0,88,29,88,88v0,58,-29,87,-88,87xm323,224v135,-6,235,-88,235,-219r0,-1074r175,0r0,1074v-12,182,-114,305,-253,363v-160,67,-331,26,-441,-84r120,-127v44,43,100,70,164,67xm645,-1464v59,0,88,29,88,88v0,58,-29,87,-88,87v-58,0,-87,-29,-87,-87v0,-59,29,-88,87,-88","w":847},"\u0134":{"d":"826,-406v-6,192,-112,315,-252,378v-98,43,-221,44,-318,0v-140,-63,-246,-185,-252,-378r175,0v3,111,62,187,144,218v170,63,328,-43,328,-218r0,-1058r175,0r0,1058xm703,-1530r-215,0r235,-329r244,329r-216,0r-28,-31","w":1031},"\u0135":{"d":"287,224v135,-6,235,-88,235,-219r0,-1074r175,0r0,1074v-12,182,-114,305,-253,363v-160,67,-331,26,-441,-84r120,-127v44,43,100,70,164,67xm536,-1135r-215,0r235,-329r244,329r-216,0r-28,-31","w":867},"\u0136":{"d":"610,149v0,-88,-60,-143,-149,-148r0,-175v152,4,251,87,297,198v77,187,-30,367,-171,422v-40,15,-81,26,-126,26r0,-174v88,-5,149,-60,149,-149xm281,5r-175,0r0,-1469r175,0r0,650r650,-650r247,0r-735,736r735,733r-247,0r-650,-648r0,648","w":1203},"\u0137":{"d":"522,149v0,-88,-60,-143,-149,-148r0,-175v152,4,251,87,297,198v77,187,-30,367,-171,422v-40,15,-81,26,-126,26r0,-174v88,-5,149,-60,149,-149xm105,5r0,-1469r175,0r0,864r413,-469r233,0r-319,363r314,711r-191,0r-251,-567r-199,228r0,339r-175,0","w":931},"\u0138":{"d":"161,5r0,-1079r175,0r0,474r413,-469r233,0r-319,363r314,711r-191,0r-251,-567r-199,228r0,339r-175,0","w":1091},"\u0139":{"d":"1060,5r-949,0r0,-1469r175,0r0,1295r774,0r0,174xm361,-1625r247,-247r123,124r-246,246","w":1063},"\u013a":{"d":"294,-389v15,130,98,213,236,220r0,174v-188,-6,-310,-107,-374,-241v-22,-48,-37,-98,-37,-153r0,-1075r175,0r0,1075xm57,-1651r247,-247r123,124r-246,246","w":556},"\u013b":{"d":"630,149v0,-78,-49,-126,-114,-144r-421,0r0,-1469r175,0r0,1295r774,0r0,174r-273,0v41,78,44,186,7,270v-49,111,-145,192,-297,197r0,-174v88,-5,149,-60,149,-149","w":1044},"\u013c":{"d":"307,-389v15,130,98,213,236,220r0,174v-36,-1,-71,-5,-104,-12v47,80,54,192,15,282v-49,111,-146,192,-298,197r0,-174v88,-5,149,-60,149,-149v0,-88,-60,-143,-149,-148r0,-175v17,0,33,1,48,4v-45,-63,-72,-136,-72,-219r0,-1075r175,0r0,1075","w":544},"\u013d":{"d":"1110,5r-949,0r0,-1469r175,0r0,1295r774,0r0,174xm508,-1122r0,-348r175,0r0,348r-175,0","w":1120},"\u013e":{"d":"307,-389v15,130,98,213,236,220r0,174v-188,-6,-311,-107,-375,-241v-22,-48,-36,-98,-36,-153r0,-1075r175,0r0,1075xm426,-1118r0,-348r175,0r0,348r-175,0","w":704},"\u013f":{"d":"1110,5r-949,0r0,-1469r175,0r0,1295r774,0r0,174xm508,-465r0,-173r175,0r0,173r-175,0","w":1110},"\u0140":{"d":"307,-389v15,130,98,213,236,220r0,174v-188,-6,-311,-107,-375,-241v-22,-48,-36,-98,-36,-153r0,-1075r175,0r0,1075xm425,-465r0,-173r175,0r0,173r-175,0","w":604},"\u0143":{"d":"278,5r-175,0r0,-1469r175,0r799,1161r0,-1161r175,0r0,1469r-175,0r-799,-1160r0,1160xm493,-1625r247,-247r123,124r-246,246","w":1359},"\u0144":{"d":"598,-877v-161,-60,-314,48,-324,202r-3,0r0,680r-175,0r0,-1074r175,0r0,77v108,-81,259,-103,394,-46v139,59,256,181,256,363r-1,680r-175,0r0,-680v-10,-100,-67,-172,-147,-202xm318,-1230r247,-247r123,124r-246,246","w":1007},"\u0145":{"d":"703,149v0,-88,-60,-143,-149,-148r0,-175v152,4,252,87,298,198v77,187,-31,367,-172,422v-40,15,-81,26,-126,26r0,-174v88,-5,149,-60,149,-149xm272,5r-175,0r0,-1469r175,0r799,1161r0,-1161r175,0r0,1469r-175,0r-799,-1160r0,1160","w":1351},"\u0146":{"d":"533,149v0,-88,-60,-143,-149,-148r0,-175v152,4,252,87,298,198v77,187,-31,367,-172,422v-40,15,-81,26,-126,26r0,-174v88,-5,149,-60,149,-149xm594,-877v-161,-60,-313,48,-323,202r-3,0r0,680r-175,0r0,-1074r175,0r0,77v108,-81,259,-103,394,-46v139,59,256,181,256,363r-1,680r-175,0r0,-680v-10,-100,-68,-172,-148,-202","w":1003},"\u0147":{"d":"685,-1818r215,0r-235,329r-244,-329r216,0r28,31xm293,5r-175,0r0,-1469r175,0r799,1161r0,-1161r175,0r0,1469r-175,0r-799,-1160r0,1160","w":1380},"\u0148":{"d":"543,-1462r215,0r-235,329r-244,-329r216,0r28,31xm614,-877v-161,-60,-314,48,-324,202r-3,0r0,680r-175,0r0,-1074r175,0r0,77v108,-81,259,-103,394,-46v139,59,256,181,256,363r-1,680r-175,0r0,-680v-10,-100,-67,-172,-147,-202","w":1031},"\u0149":{"d":"556,-877v-161,-60,-314,48,-324,202r-3,0r0,680r-175,0r0,-1074r175,0r0,77v108,-81,259,-103,394,-46v139,59,256,181,256,363r-1,680r-175,0r0,-680v-10,-100,-67,-172,-147,-202xm624,-1230r247,-247r123,124r-246,246","w":1092},"\u014a":{"d":"1254,67v-6,192,-112,316,-252,379v-98,43,-221,44,-318,0v-140,-63,-246,-186,-252,-379r175,0v3,111,61,190,144,219v189,67,349,-58,328,-281r-799,-1160r0,1160r-175,0r0,-1469r175,0r799,1161r0,-1161r175,0r0,1531","w":1408},"\u014b":{"d":"622,-877v-161,-60,-313,48,-323,202r-3,0r0,680r-175,0r0,-1074r175,0r0,77v108,-81,259,-103,394,-46v139,59,256,181,256,363r-1,680v-12,182,-114,305,-253,363v-160,67,-331,26,-441,-84r120,-127v44,43,100,70,164,67v135,-6,235,-88,235,-219r0,-680v-10,-100,-68,-172,-148,-202","w":1073},"\u014c":{"d":"1542,-729v0,396,-339,734,-734,734v-397,0,-735,-338,-735,-734v0,-395,339,-735,735,-735v303,0,582,213,680,453v36,85,54,179,54,282xm248,-729v0,303,258,560,560,560v300,0,559,-260,559,-560v0,-300,-261,-560,-559,-560v-302,0,-560,259,-560,560xm484,-1548r0,-155r669,0r0,155r-669,0","w":1616},"\u014d":{"d":"76,-532v0,-358,377,-655,744,-494v183,80,331,242,331,494v0,252,-146,414,-330,494v-367,160,-745,-134,-745,-494xm280,-391v66,158,261,280,473,193v126,-51,223,-163,223,-334v0,-169,-100,-279,-223,-334v-145,-66,-318,-1,-395,78v-83,85,-138,254,-78,397xm271,-1167r0,-155r669,0r0,155r-669,0","w":1225},"\u014e":{"d":"821,-1714v89,0,143,-60,148,-149r175,0v-4,152,-87,251,-198,297v-187,77,-367,-30,-422,-171v-15,-40,-26,-81,-26,-126r174,0v5,90,59,149,149,149xm1539,-729v0,396,-339,734,-734,734v-397,0,-735,-338,-735,-734v0,-395,339,-735,735,-735v303,0,583,213,681,453v36,85,53,179,53,282xm245,-729v0,303,258,560,560,560v300,0,559,-260,559,-560v0,-300,-261,-560,-559,-560v-302,0,-560,259,-560,560","w":1611},"\u014f":{"d":"622,-1312v89,0,143,-60,148,-149r175,0v-4,152,-87,251,-198,297v-187,77,-368,-30,-423,-171v-15,-40,-25,-81,-25,-126r174,0v5,90,59,149,149,149xm78,-532v0,-358,377,-655,744,-494v183,80,331,242,331,494v0,252,-146,414,-330,494v-367,160,-745,-134,-745,-494xm282,-391v66,158,261,280,473,193v126,-51,223,-163,223,-334v0,-169,-100,-279,-223,-334v-145,-66,-318,-1,-395,78v-83,85,-138,254,-78,397","w":1232},"\u0150":{"d":"457,-1612r247,-247r123,124r-246,246xm868,-1612r247,-247r123,124r-246,246xm1539,-729v0,396,-339,734,-734,734v-397,0,-735,-338,-735,-734v0,-395,339,-735,735,-735v303,0,583,213,681,453v36,85,53,179,53,282xm245,-729v0,303,258,560,560,560v300,0,559,-260,559,-560v0,-300,-261,-560,-559,-560v-302,0,-560,259,-560,560","w":1617},"\u0151":{"d":"263,-1239r247,-247r123,124r-246,246xm674,-1239r247,-247r123,124r-246,246xm72,-532v0,-358,377,-655,744,-494v183,80,331,242,331,494v0,252,-146,414,-330,494v-367,160,-745,-134,-745,-494xm276,-391v66,158,261,280,473,193v126,-51,223,-163,223,-334v0,-169,-100,-279,-223,-334v-145,-66,-318,-1,-395,78v-83,85,-138,254,-78,397","w":1237},"\u0152":{"d":"95,-730v0,-395,342,-734,735,-734r703,0r0,175r-524,0r0,472r363,0r0,175r-363,0r0,473r524,0r0,174r-703,0v-396,11,-735,-339,-735,-735xm290,-878v-104,380,192,713,543,708r0,-1120v-241,5,-390,124,-485,278v-25,41,-44,86,-58,134","w":1641},"\u0153":{"d":"1560,-169v158,0,256,-85,318,-188r191,0v-79,204,-238,362,-509,362v-220,0,-357,-103,-449,-240v-96,141,-239,235,-450,240v-289,7,-537,-248,-537,-537v0,-289,250,-544,537,-537v212,5,355,101,450,242v92,-138,229,-242,449,-242v252,0,413,147,495,329v40,88,53,190,35,296r-882,0v46,157,159,275,352,275xm328,-391v64,158,257,280,468,195v133,-54,236,-166,227,-358v-8,-158,-104,-266,-227,-314v-210,-83,-405,40,-468,196v-35,88,-36,194,0,281xm1912,-619v-47,-185,-242,-330,-472,-254v-116,39,-199,130,-232,254r704,0","w":2214},"\u0154":{"d":"1056,5r-214,0r-452,-647r-108,0r0,647r-175,0r0,-1469r538,0v192,5,316,113,379,252v44,98,44,220,0,318v-68,150,-199,260,-421,252xm282,-1289r0,472r363,0v111,-3,186,-62,217,-144v63,-169,-44,-328,-217,-328r-363,0xm386,-1625r247,-247r123,124r-246,246","w":1113},"\u0155":{"d":"679,-832v-82,-87,-245,-74,-321,2v-37,37,-74,89,-74,155r-3,680r-175,0r0,-1074r175,0r0,77v158,-118,393,-97,525,39xm234,-1230r247,-247r123,124r-246,246","w":806},"\u0156":{"d":"579,149v0,-88,-60,-143,-149,-148r0,-175v152,4,252,87,298,198v77,187,-31,367,-172,422v-40,15,-81,26,-126,26r0,-174v88,-5,149,-60,149,-149xm1053,5r-214,0r-452,-647r-108,0r0,647r-175,0r0,-1469r538,0v192,5,315,113,378,252v44,98,44,220,0,318v-68,150,-198,260,-420,252xm279,-1289r0,472r363,0v111,-3,187,-62,218,-144v63,-169,-45,-328,-218,-328r-363,0","w":1105},"\u0157":{"d":"482,149v0,-88,-60,-143,-149,-148r0,-175v152,4,251,87,297,198v77,187,-30,367,-171,422v-40,15,-81,26,-126,26r0,-174v88,-5,149,-60,149,-149xm668,-832v-82,-87,-245,-74,-321,2v-37,37,-74,89,-74,155r-3,680r-175,0r0,-1074r175,0r0,77v158,-118,393,-97,525,39","w":835},"\u0158":{"d":"601,-1850r215,0r-235,329r-244,-329r216,0r28,31xm1066,5r-214,0r-452,-647r-108,0r0,647r-175,0r0,-1469r538,0v192,5,316,113,379,252v44,98,44,220,0,318v-68,150,-199,260,-421,252xm292,-1289r0,472r363,0v111,-3,186,-62,217,-144v63,-169,-44,-328,-217,-328r-363,0","w":1128},"\u0159":{"d":"479,-1465r215,0r-235,329r-244,-329r216,0r28,31xm693,-832v-82,-87,-245,-74,-321,2v-37,37,-74,89,-74,155r-3,680r-175,0r0,-1074r175,0r0,77v158,-118,393,-97,525,39","w":820},"\u015a":{"d":"314,-28v-156,-71,-271,-217,-248,-439r179,0v-31,137,38,240,136,279v198,78,390,-102,309,-309v-32,-82,-107,-141,-217,-145v-193,-5,-316,-113,-379,-252v-44,-97,-43,-220,0,-318v63,-140,186,-252,379,-252v192,0,317,113,379,252v30,67,39,140,27,221r-178,0v31,-137,-39,-240,-137,-279v-197,-79,-387,102,-308,309v31,83,106,141,217,144v192,6,316,114,379,253v43,98,43,219,0,317v-63,140,-186,252,-379,252v-57,0,-109,-11,-159,-33xm287,-1625r247,-247r123,124r-246,246","w":946},"\u015b":{"d":"230,-658v0,24,11,39,33,39r390,0v147,0,224,69,224,213v0,192,-113,315,-252,378v-153,70,-349,12,-434,-72v-64,-63,-120,-149,-133,-257r177,0v24,135,171,231,323,169v82,-33,141,-108,144,-220v0,-24,-16,-36,-48,-36r-394,0v-139,0,-207,-74,-205,-214v3,-192,113,-314,252,-378v152,-69,345,-12,431,72v64,63,123,149,136,257r-177,0v-26,-132,-171,-230,-323,-169v-82,33,-140,108,-144,218xm281,-1230r247,-247r123,124r-246,246","w":938},"\u015c":{"d":"320,-28v-156,-71,-271,-217,-248,-439r179,0v-31,137,38,240,136,279v198,78,390,-102,309,-309v-32,-82,-107,-141,-217,-145v-193,-5,-316,-113,-379,-252v-44,-97,-43,-220,0,-318v63,-140,186,-252,379,-252v192,0,317,113,379,252v30,67,39,140,27,221r-178,0v31,-137,-39,-240,-137,-279v-197,-79,-387,102,-308,309v31,83,106,141,217,144v192,6,316,114,379,253v43,98,43,219,0,317v-63,140,-186,252,-379,252v-57,0,-109,-11,-159,-33xm454,-1530r-215,0r235,-329r244,329r-216,0r-28,-31","w":955},"\u015d":{"d":"235,-658v0,24,11,39,33,39r390,0v147,0,224,69,224,213v0,192,-113,315,-252,378v-153,70,-349,12,-434,-72v-64,-63,-120,-149,-133,-257r177,0v24,135,171,231,323,169v82,-33,141,-108,144,-220v0,-24,-16,-36,-48,-36r-394,0v-139,0,-207,-74,-205,-214v3,-192,113,-314,252,-378v152,-69,346,-12,432,72v64,63,122,149,135,257r-177,0v-26,-132,-171,-230,-323,-169v-82,33,-140,108,-144,218xm447,-1135r-215,0r235,-329r244,329r-216,0r-28,-31","w":940},"\u015e":{"d":"324,-28v-156,-71,-270,-217,-247,-439r179,0v-31,137,38,240,136,279v198,78,390,-102,309,-309v-32,-82,-107,-141,-217,-145v-193,-5,-315,-113,-378,-252v-44,-97,-43,-220,0,-318v63,-140,185,-252,378,-252v192,0,316,113,378,252v30,67,40,140,28,221r-178,0v31,-137,-39,-240,-137,-279v-197,-79,-388,102,-309,309v31,83,107,141,218,144v192,6,315,114,378,253v43,98,43,219,0,317v-63,140,-185,252,-378,252v-57,0,-110,-11,-160,-33xm396,179r0,-348r175,0r0,348r-175,0","w":971},"\u015f":{"d":"244,-658v0,24,11,39,33,39r390,0v147,0,224,69,224,213v0,192,-113,315,-252,378v-153,70,-349,12,-434,-72v-64,-63,-120,-149,-133,-257r177,0v24,135,171,231,323,169v82,-33,141,-108,144,-220v0,-24,-16,-36,-48,-36r-394,0v-139,0,-207,-74,-205,-214v3,-192,113,-314,252,-378v152,-69,345,-12,431,72v64,63,123,149,136,257r-177,0v-26,-132,-171,-230,-323,-169v-82,33,-140,108,-144,218xm393,179r0,-348r175,0r0,348r-175,0","w":961},"\u0160":{"d":"503,-1818r215,0r-235,329r-244,-329r216,0r28,31xm322,-28v-156,-71,-270,-217,-247,-439r179,0v-31,137,38,240,136,279v198,78,390,-102,309,-309v-32,-82,-107,-141,-217,-145v-193,-5,-315,-113,-378,-252v-44,-97,-43,-220,0,-318v63,-140,185,-252,378,-252v192,0,316,113,378,252v30,67,40,140,28,221r-178,0v31,-137,-39,-240,-137,-279v-197,-79,-388,102,-309,309v31,83,107,141,218,144v192,6,315,114,378,253v43,98,43,219,0,317v-63,140,-185,252,-378,252v-57,0,-110,-11,-160,-33","w":962},"\u0161":{"d":"496,-1458r215,0r-235,329r-244,-329r216,0r28,31xm245,-658v0,24,11,39,33,39r390,0v147,0,224,69,224,213v0,192,-113,315,-252,378v-153,70,-349,12,-434,-72v-64,-63,-120,-149,-133,-257r177,0v24,135,171,231,323,169v82,-33,141,-108,144,-220v0,-24,-16,-36,-48,-36r-394,0v-139,0,-207,-74,-205,-214v3,-192,113,-314,252,-378v152,-69,346,-12,432,72v64,63,122,149,135,257r-177,0v-26,-132,-171,-230,-323,-169v-82,33,-140,108,-144,218","w":958},"\u0164":{"d":"497,-1811r215,0r-235,329r-244,-329r216,0r28,31xm969,-1464r0,175r-391,0r0,1294r-183,0r0,-1294r-390,0r0,-175r964,0","w":973},"\u0165":{"d":"350,-389v15,130,97,213,235,220r0,174v-188,-6,-308,-107,-373,-241v-22,-48,-37,-98,-37,-153r0,-505r-168,0r0,-175r168,0r0,-220r175,0r0,220r234,0r0,175r-234,0r0,505xm417,-1138r0,-348r175,0r0,348r-175,0","w":735},"\u0166":{"d":"169,-913r0,-155r250,0r0,-221r-390,0r0,-175r964,0r0,175r-391,0r0,221r236,0r0,155r-236,0r0,918r-183,0r0,-918r-250,0","w":1022},"\u0167":{"d":"368,-389v15,130,97,213,235,220r0,174v-188,-6,-306,-109,-373,-241v-54,-107,-32,-265,-37,-416r-171,0r0,-155r171,0r0,-87r-168,0r0,-175r168,0r0,-220r175,0r0,220r234,0r0,175r-234,0r0,87r234,0r0,155r-234,0r0,263","w":676},"\u0168":{"d":"941,-406v-6,192,-112,315,-252,378v-98,43,-222,44,-319,0v-140,-63,-251,-185,-251,-378r0,-1058r165,0r10,1058v3,111,62,187,144,218v170,63,328,-43,328,-218r0,-1058r175,0r0,1058xm626,-1773v40,0,69,-55,33,-86r187,0v16,122,-49,202,-135,240v-92,40,-187,10,-249,-55v-41,-43,-111,31,-64,71r0,2r-186,0v-16,-120,48,-202,132,-240v92,-41,199,-6,247,50v11,13,24,18,35,18xm405,-1601r-1,-1","w":1060},"\u0169":{"d":"527,-169v137,0,220,-90,235,-220r4,0r0,-680r175,0r0,1074r-175,0r0,-76v-110,80,-261,102,-396,45v-140,-59,-254,-179,-254,-363r0,-680r175,0r0,680v15,130,98,220,236,220xm629,-1378v40,0,69,-55,33,-86r187,0v16,122,-49,202,-135,240v-92,40,-187,10,-249,-55v-41,-43,-111,31,-64,71r0,2r-186,0v-16,-120,49,-202,133,-240v92,-41,198,-6,246,50v11,13,24,18,35,18xm408,-1206r-1,-1","w":1080},"\u016a":{"d":"956,-406v-6,192,-112,315,-252,378v-98,43,-221,44,-318,0v-140,-63,-252,-185,-252,-378r0,-1058r165,0r10,1058v3,111,62,187,144,218v170,63,328,-43,328,-218r0,-1058r175,0r0,1058xm209,-1527r0,-155r669,0r0,155r-669,0","w":1090},"\u016b":{"d":"526,-169v137,0,220,-90,235,-220r4,0r0,-680r175,0r0,1074r-175,0r0,-76v-110,80,-260,102,-395,45v-140,-59,-255,-179,-255,-363r0,-680r175,0r0,680v15,130,98,220,236,220xm185,-1187r0,-155r669,0r0,155r-669,0","w":1074},"\u016c":{"d":"539,-1633v89,0,143,-60,148,-149r175,0v-4,152,-87,252,-198,298v-187,77,-367,-31,-422,-172v-15,-40,-26,-81,-26,-126r174,0v5,90,59,149,149,149xm952,-406v-6,192,-112,315,-252,378v-98,43,-221,44,-318,0v-140,-63,-252,-185,-252,-378r0,-1058r165,0r10,1058v3,111,62,187,144,218v170,63,328,-43,328,-218r0,-1058r175,0r0,1058","w":1082},"\u016d":{"d":"534,-1312v89,0,143,-60,148,-149r175,0v-4,152,-87,251,-198,297v-187,77,-368,-30,-423,-171v-15,-40,-25,-81,-25,-126r174,0v5,90,59,149,149,149xm528,-169v137,0,220,-90,235,-220r4,0r0,-680r175,0r0,1074r-175,0r0,-76v-110,80,-260,102,-395,45v-140,-59,-255,-179,-255,-363r0,-680r175,0r0,680v15,130,98,220,236,220","w":1081},"\u016e":{"d":"951,-406v-6,192,-112,315,-252,378v-98,43,-222,44,-319,0v-140,-63,-251,-185,-251,-378r0,-1058r85,0v-44,-186,52,-332,185,-390v130,-57,286,-2,354,70v66,69,120,195,82,320r116,0r0,1058xm776,-1352v-105,142,-353,163,-481,25r9,921v3,111,62,187,144,218v170,63,328,-43,328,-218r0,-946xm673,-1556v0,-88,-60,-149,-148,-149v-89,0,-149,59,-149,149v0,90,59,149,149,149v89,0,148,-60,148,-149","w":1074},"\u016f":{"d":"657,-1362v0,-88,-60,-149,-148,-149v-89,0,-149,59,-149,149v0,90,59,149,149,149v89,0,148,-60,148,-149xm212,-1487v56,-143,230,-246,422,-173v141,54,244,240,172,424v-55,140,-239,244,-423,172v-141,-55,-243,-239,-171,-423xm524,-169v137,0,220,-90,235,-220r4,0r0,-680r175,0r0,1074r-175,0r0,-76v-110,80,-260,102,-395,45v-140,-59,-255,-179,-255,-363r0,-680r175,0r0,680v15,130,98,220,236,220","w":1057},"\u0170":{"d":"201,-1627r247,-247r123,124r-246,246xm612,-1627r247,-247r123,124r-246,246xm943,-406v-6,192,-112,315,-252,378v-98,43,-222,44,-319,0v-140,-63,-251,-185,-251,-378r0,-1058r165,0r10,1058v3,111,62,187,144,218v170,63,328,-43,328,-218r0,-1058r175,0r0,1058","w":1094},"\u0171":{"d":"184,-1245r247,-247r123,124r-246,246xm595,-1245r247,-247r123,124r-246,246xm520,-169v137,0,220,-90,235,-220r4,0r0,-680r175,0r0,1074r-175,0r0,-76v-110,80,-260,102,-395,45v-140,-59,-255,-179,-255,-363r0,-680r175,0r0,680v15,130,98,220,236,220","w":1094},"\u0172":{"d":"558,-170v121,-20,208,-103,208,-236r0,-1058r175,0r0,1058v-6,192,-112,316,-252,378v-54,24,-107,34,-171,33v-64,18,-109,67,-109,144v0,89,60,143,149,148r0,175v-152,-4,-250,-88,-298,-198v-50,-115,-26,-247,49,-332v-112,-69,-190,-185,-190,-348r0,-1058r165,0r10,1058v7,134,87,218,211,236v17,-3,34,-4,53,-4r0,4","w":1016},"\u0173":{"d":"449,-169v137,0,220,-90,235,-220r4,0r0,-680r175,0r0,1074v-100,-8,-152,61,-152,144v0,89,60,143,149,148r0,175v-152,-4,-249,-88,-298,-198v-41,-93,-31,-209,18,-290v-233,69,-433,-54,-506,-220v-21,-48,-36,-98,-36,-153r0,-680r175,0r0,680v15,130,98,220,236,220","w":1021},"\u0174":{"d":"378,5r-316,-1469r179,0r273,1270r273,-1270r276,0r273,1270r273,-1270r178,0r-315,1469r-272,0r-275,-1279r-275,1279r-272,0xm900,-1530r-215,0r235,-329r244,329r-216,0r-28,-31","w":1849},"\u0175":{"d":"371,5r-319,-1074r182,0r262,882r263,-882r263,0r262,882r262,-882r182,0r-319,1074r-250,0r-269,-903r-268,903r-251,0xm865,-1135r-215,0r235,-329r244,329r-216,0r-28,-31","w":1780},"\u0176":{"d":"222,-1464r425,586r424,-586r217,0r-554,763r0,706r-175,0r0,-706r-553,-763r216,0xm622,-1530r-215,0r235,-329r244,329r-216,0r-28,-31","w":1294},"\u0177":{"d":"345,5r-319,-1074r182,0r262,880r263,-880r182,0r-319,1074r-2,0r-117,393r-182,0r117,-393r-67,0xm442,-1135r-215,0r235,-329r244,329r-216,0r-28,-31","w":935},"\u0178":{"d":"220,-1464r425,586r424,-586r217,0r-554,763r0,706r-175,0r0,-706r-553,-763r216,0xm887,-1689v-58,0,-87,-28,-87,-85v0,-57,29,-85,87,-85v59,0,88,28,88,85v0,57,-29,85,-88,85xm403,-1689v-57,0,-86,-28,-86,-85v0,-57,29,-85,86,-85v59,0,88,28,88,85v0,57,-29,85,-88,85","w":1290},"\u0179":{"d":"1053,5r-1016,0r719,-1294r-719,0r0,-175r1016,0r-719,1295r719,0r0,174xm360,-1625r247,-247r123,124r-246,246","w":1078},"\u017a":{"d":"838,-1069r-500,900r500,0r0,174r-797,0r500,-899r-500,0r0,-175r797,0xm254,-1230r247,-247r123,124r-246,246","w":882},"\u017b":{"d":"533,-1584v-58,0,-87,-29,-87,-87v0,-59,29,-88,87,-88v59,0,88,29,88,88v0,58,-29,87,-88,87xm1030,5r-1016,0r719,-1294r-719,0r0,-175r1016,0r-719,1295r719,0r0,174","w":1046},"\u017c":{"d":"819,-1069r-500,900r500,0r0,174r-797,0r500,-899r-500,0r0,-175r797,0xm433,-1289v-58,0,-87,-29,-87,-87v0,-59,29,-88,87,-88v59,0,88,29,88,88v0,58,-29,87,-88,87","w":844},"\u017d":{"d":"562,-1861r215,0r-235,329r-244,-329r216,0r28,31xm1065,5r-1016,0r719,-1294r-719,0r0,-175r1016,0r-719,1295r719,0r0,174","w":1091},"\u017e":{"d":"480,-1458r215,0r-235,329r-244,-329r216,0r28,31xm859,-1069r-500,900r500,0r0,174r-797,0r500,-899r-500,0r0,-175r797,0","w":909},"\u017f":{"d":"599,-1289v-137,0,-235,90,-235,220r0,1074r-175,0r0,-899r-132,0r0,-175r131,0v12,-184,117,-305,256,-364v147,-62,308,-31,417,65r-115,131v-43,-35,-92,-52,-147,-52","w":515},"\u0192":{"d":"1311,-1069v-14,-152,-162,-265,-325,-203v-80,30,-136,102,-146,203r235,0r0,175r-235,0r0,899r-2,0v-12,182,-116,302,-254,363v-161,71,-356,4,-440,-84v-65,-67,-119,-161,-126,-279r175,0v17,127,97,219,235,219v136,0,235,-88,235,-219r0,-899r-130,0r0,-175r131,0v12,-184,117,-303,256,-364v161,-71,354,-4,438,85v64,68,122,161,128,279r-175,0","w":1502},"\u01fa":{"d":"435,-1327v-112,-64,-192,-208,-145,-373v27,-96,92,-168,181,-205r241,-241r123,124r-114,114v113,51,202,145,202,301v0,127,-68,228,-157,278r397,1334r-183,0r-52,-174r-655,0r-52,174r-182,0xm325,-344r551,0r-275,-927xm748,-1607v0,-88,-60,-149,-148,-149v-89,0,-149,59,-149,149v0,70,46,127,105,143r87,0v58,-15,105,-74,105,-143","w":1214},"\u01fb":{"d":"46,-532v6,-241,124,-382,284,-475v-75,-85,-100,-219,-50,-335v48,-111,145,-199,298,-199v151,0,250,88,298,199v50,115,26,245,-49,331v41,21,81,48,119,82r0,-140r175,0r0,1074r-175,0r0,-140v-103,93,-224,140,-363,140v-289,0,-545,-248,-537,-537xm250,-391v63,159,261,280,473,193v126,-51,223,-163,223,-334v0,-167,-98,-275,-218,-331v-87,-41,-202,-41,-290,0v-120,56,-217,164,-217,331v0,50,11,96,29,141xm726,-1217v0,-88,-60,-144,-148,-149v-128,-7,-193,157,-111,250v28,32,67,54,129,47v77,-9,130,-66,130,-148xm430,-1690r247,-247r123,124r-246,246","w":1200},"\u01fc":{"d":"1631,5r-715,0r0,-159r-604,0r-88,159r-199,0r815,-1469r791,0r0,175r-540,0r0,472r379,0r0,175r-379,0r0,473r540,0r0,174xm916,-1241r-518,933r518,0r0,-933xm661,-1625r247,-247r123,124r-246,246","w":1666},"\u01fd":{"d":"383,-38v-207,-91,-361,-290,-322,-582r728,0r0,-216v-59,-39,-125,-59,-198,-59v-158,0,-257,84,-318,188r-191,0v79,-204,239,-362,509,-362v107,0,203,27,286,82v134,-91,335,-111,495,-39v183,82,330,242,330,494v0,31,-3,60,-8,88r-730,0r0,216v59,39,126,59,200,59v158,0,256,-85,318,-188r191,0v-79,204,-238,362,-509,362v-107,0,-202,-27,-287,-81v-136,90,-333,109,-494,38xm1516,-619v-47,-155,-160,-275,-352,-275v-75,0,-141,20,-200,60r0,215r552,0xm239,-445v34,146,175,277,352,275v73,0,139,-19,198,-58r0,-217r-550,0xm692,-1230r247,-247r123,124r-246,246","w":1760},"\u01fe":{"d":"1526,-729v0,396,-339,734,-734,734v-397,0,-735,-338,-735,-734v0,-395,339,-735,735,-735v303,0,582,213,680,453v36,85,54,179,54,282xm597,-201v472,162,913,-301,700,-772v-34,-76,-90,-141,-163,-198xm982,-1257v-387,-136,-750,165,-750,528v0,177,71,324,214,442xm606,-1625r247,-247r123,124r-246,246","w":1585},"\u01ff":{"d":"52,-532v0,-358,377,-655,744,-494v183,80,331,242,331,494v0,252,-146,414,-330,494v-367,160,-745,-134,-745,-494xm779,-841v-92,-59,-224,-72,-331,-25v-123,55,-221,164,-221,334v0,71,17,134,52,189xm403,-219v92,57,221,68,326,21v124,-55,223,-163,223,-334v0,-67,-17,-129,-50,-184xm403,-1230r247,-247r123,124r-246,246","w":1183},"\u02c6":{"d":"248,-1135r-215,0r235,-329r244,329r-216,0r-28,-31","w":542},"\u02c7":{"d":"290,-1818r215,0r-235,329r-244,-329r216,0r28,31","w":534},"\u02d8":{"d":"415,-1676v89,0,143,-60,148,-149r175,0v-4,152,-87,251,-198,297v-187,77,-367,-30,-422,-171v-15,-40,-26,-81,-26,-126r174,0v5,90,59,149,149,149","w":830},"\u02d9":{"d":"161,286r0,-173r175,0r0,173r-175,0","w":506},"\u02da":{"d":"567,-1140v0,-88,-60,-149,-148,-149v-89,0,-149,59,-149,149v0,90,59,149,149,149v89,0,148,-60,148,-149xm122,-1265v56,-143,230,-246,422,-173v141,54,244,240,172,424v-55,140,-239,244,-423,172v-141,-55,-243,-239,-171,-423","w":837},"\u02db":{"d":"221,149v0,88,61,143,149,148r0,175v-152,-4,-252,-87,-298,-198v-77,-187,31,-367,172,-422v40,-15,81,-26,126,-26r0,174v-89,6,-149,59,-149,149","w":474},"\u02dc":{"d":"534,-1378v40,0,69,-55,33,-86r187,0v16,122,-49,202,-135,240v-92,40,-187,10,-249,-55v-41,-43,-111,31,-64,71r0,2r-186,0v-16,-120,48,-202,132,-240v92,-41,199,-6,247,50v11,13,24,18,35,18xm313,-1206r-1,-1","w":874},"\u02dd":{"d":"77,-1230r247,-247r123,124r-246,246xm488,-1230r247,-247r123,124r-246,246","w":934},"\u0384":{"d":"20,-1230r247,-247r123,124r-246,246","w":409},"\u0385":{"d":"721,-1289v-58,0,-87,-29,-87,-87v0,-59,29,-88,87,-88v59,0,88,29,88,88v0,58,-29,87,-88,87xm235,-1289v-58,0,-87,-29,-87,-87v0,-59,29,-88,87,-88v59,0,88,29,88,88v0,58,-29,87,-88,87","w":956},"\u0386":{"d":"564,-1464r250,0r437,1469r-183,0r-52,-174r-655,0r-52,174r-182,0xm413,-344r551,0r-275,-927xm113,-1230r247,-247r123,124r-246,246","w":1298},"\u0387":{"d":"161,-465r0,-173r175,0r0,173r-175,0","w":506},"\u0388":{"d":"1406,5r-949,0r0,-1469r949,0r0,175r-774,0r0,472r613,0r0,175r-613,0r0,473r774,0r0,174xm50,-1230r247,-247r123,124r-246,246","w":1488},"\u0389":{"d":"649,5r-175,0r0,-1469r175,0r0,647r599,0r0,-647r175,0r0,1469r-175,0r0,-647r-599,0r0,647xm48,-1230r247,-247r123,124r-246,246","w":1585},"\u038a":{"d":"429,5r0,-1469r175,0r0,1469r-175,0xm0,-1230r247,-247r123,124r-246,246","w":767},"\u038c":{"d":"1726,-729v0,396,-339,734,-734,734v-397,0,-735,-338,-735,-734v0,-395,339,-735,735,-735v303,0,582,213,680,453v36,85,54,179,54,282xm432,-729v0,303,258,560,560,560v300,0,559,-260,559,-560v0,-300,-261,-560,-559,-560v-302,0,-560,259,-560,560xm69,-1230r247,-247r123,124r-246,246","w":1826},"\u038e":{"d":"577,-1464r425,586r424,-586r217,0r-554,763r0,706r-175,0r0,-706r-553,-763r216,0xm13,-1230r247,-247r123,124r-246,246","w":1685},"\u038f":{"d":"534,-930v0,189,113,304,264,351r-1,584r-438,0r0,-174r263,0r0,-297v-154,-93,-258,-244,-263,-464v-9,-358,378,-655,745,-494v183,80,330,242,330,494v0,233,-116,373,-268,466r0,295r263,0r0,174r-438,0r-1,-583v154,-46,269,-164,269,-352v0,-169,-100,-279,-223,-334v-145,-66,-321,-3,-396,78v-56,62,-106,146,-106,256xm54,-1230r305,-247r65,124r-246,246","w":1552},"\u0390":{"d":"256,5r0,-1469r175,0r0,1469r-175,0xm588,-1629v-58,0,-87,-29,-87,-87v0,-59,29,-88,87,-88v59,0,88,29,88,88v0,58,-29,87,-88,87xm102,-1629v-58,0,-87,-29,-87,-87v0,-59,29,-88,87,-88v59,0,88,29,88,88v0,58,-29,87,-88,87xm246,-1771r189,-177r94,89r-188,176","w":703},"\u0391":{"d":"486,-1464r250,0r437,1469r-183,0r-52,-174r-655,0r-52,174r-182,0xm335,-344r551,0r-275,-927","w":1222},"\u0392":{"d":"952,-729v94,71,158,153,158,323v0,91,-41,181,-121,273v-80,92,-177,138,-290,138r-538,0r0,-1469r538,0v113,0,209,46,290,139v81,93,121,183,121,272v0,169,-63,254,-158,324xm336,-642r0,473r363,0v110,-3,186,-63,217,-145v63,-169,-44,-328,-217,-328r-363,0xm699,-1289r-363,0r0,472r363,0v111,-3,186,-62,217,-144v63,-169,-44,-328,-217,-328","w":1225},"\u0393":{"d":"336,5r-175,0r0,-1469r949,0r0,175r-774,0r0,1294","w":1110},"\u0395":{"d":"1110,5r-949,0r0,-1469r949,0r0,175r-774,0r0,472r613,0r0,175r-613,0r0,473r774,0r0,174","w":1169},"\u0396":{"d":"1108,5r-1016,0r719,-1294r-719,0r0,-175r1016,0r-719,1295r719,0r0,174","w":1199},"\u0397":{"d":"336,5r-175,0r0,-1469r175,0r0,647r599,0r0,-647r175,0r0,1469r-175,0r0,-647r-599,0r0,647","w":1273},"\u0398":{"d":"1565,-729v0,396,-339,734,-734,734v-397,0,-735,-338,-735,-734v0,-395,339,-735,735,-735v303,0,583,213,681,453v36,85,53,179,53,282xm271,-729v0,303,258,560,560,560v300,0,559,-260,559,-560v0,-300,-261,-560,-559,-560v-302,0,-560,259,-560,560xm495,-636r0,-155r669,0r0,155r-669,0","w":1661},"\u0399":{"d":"161,5r0,-1469r175,0r0,1469r-175,0","w":506},"\u039a":{"d":"336,5r-175,0r0,-1469r175,0r0,650r650,-650r247,0r-735,736r735,733r-247,0r-650,-648r0,648","w":1324},"\u039b":{"d":"736,-1464r437,1469r-182,0r-380,-1277r-379,1277r-183,0r437,-1469r250,0","w":1222},"\u039c":{"d":"336,5r-175,0r0,-1469r175,0r455,789r455,-789r175,0r0,1469r-175,0r0,-1119r-455,789r-455,-789r0,1119","w":1583},"\u039d":{"d":"336,5r-175,0r0,-1469r175,0r799,1161r0,-1161r175,0r0,1469r-175,0r-799,-1160r0,1160","w":1472},"\u039e":{"d":"43,0r0,-173r1019,0r0,173r-1019,0xm222,-657r0,-173r682,0r0,173r-682,0xm43,-1289r0,-173r1019,0r0,173r-1019,0","w":1107},"\u039f":{"d":"1565,-729v0,396,-339,734,-734,734v-397,0,-735,-338,-735,-734v0,-395,339,-735,735,-735v303,0,583,213,681,453v36,85,53,179,53,282xm271,-729v0,303,258,560,560,560v300,0,559,-260,559,-560v0,-300,-261,-560,-559,-560v-302,0,-560,259,-560,560","w":1661},"\u03a0":{"d":"935,5r0,-1294r-599,0r0,1294r-175,0r0,-1469r949,0r0,1469r-175,0","w":1273},"\u03a1":{"d":"699,-642r-363,0r0,647r-175,0r0,-1469r538,0v192,5,316,113,379,252v44,98,43,220,0,318v-63,140,-186,252,-379,252xm336,-1289r0,472r363,0v111,-3,186,-62,217,-144v63,-169,-44,-328,-217,-328r-363,0","w":1115},"\u03a3":{"d":"725,-732r-310,557r719,0r0,175r-1016,0r407,-732r-407,-732r1016,0r0,175r-719,0","w":1204},"\u03a4":{"d":"991,-1464r0,175r-391,0r0,1294r-183,0r0,-1294r-390,0r0,-175r964,0","w":1019},"\u03a5":{"d":"242,-1464r425,586r424,-586r217,0r-554,763r0,706r-175,0r0,-706r-553,-763r216,0","w":1334},"\u03a6":{"d":"1170,-567v-76,167,-224,270,-472,252r0,320r-176,0r0,-320v-240,15,-382,-89,-456,-251v-44,-97,-45,-223,0,-320v73,-158,212,-268,456,-251r0,-327r176,0r0,327v99,-1,178,-1,252,33v139,64,252,185,252,378v0,56,-10,109,-32,159xm522,-962v-186,-14,-314,64,-314,236v0,112,64,181,145,218v48,22,104,18,169,18r0,-472xm698,-962r0,472v70,-1,133,3,185,-18v102,-41,182,-177,125,-309v-35,-81,-107,-141,-217,-145r-93,0","w":1233},"\u03a7":{"d":"332,-1464r425,586r424,-586r217,0r-533,735r533,734r-217,0r-424,-585r-425,585r-216,0r533,-734r-533,-735r216,0","w":1514},"\u03a8":{"d":"478,-555v-263,-19,-413,-168,-413,-403r0,-506r165,0r10,506v4,103,64,172,138,206v32,15,62,20,100,16r0,-728r175,0r0,726v113,6,185,-55,223,-134v12,-27,19,-55,19,-86r0,-506r175,0r0,506v0,114,-40,211,-121,291v-58,58,-157,95,-296,111r0,561r-175,0r0,-560","w":1135},"\u03a9":{"d":"287,-930v0,189,113,304,264,351r-1,584r-438,0r0,-174r263,0r0,-297v-154,-93,-258,-244,-263,-464v-9,-358,377,-655,744,-494v183,80,331,242,331,494v0,233,-116,373,-268,466r0,295r263,0r0,174r-438,0r-1,-583v154,-46,269,-164,269,-352v0,-169,-100,-279,-223,-334v-145,-66,-320,-3,-395,78v-56,62,-107,146,-107,256","w":1297},"\u03aa":{"d":"185,5r0,-1469r175,0r0,1469r-175,0xm436,-1684v-58,0,-87,-29,-87,-87v0,-59,29,-88,87,-88v59,0,88,29,88,88v0,58,-29,87,-88,87xm94,-1684v-58,0,-87,-29,-87,-87v0,-59,29,-88,87,-88v59,0,88,29,88,88v0,58,-29,87,-88,87","w":535},"\u03ab":{"d":"221,-1464r425,586r424,-586r217,0r-554,763r0,706r-175,0r0,-706r-553,-763r216,0xm888,-1684v-58,0,-87,-29,-87,-87v0,-59,29,-88,87,-88v59,0,88,29,88,88v0,58,-29,87,-88,87xm402,-1684v-58,0,-87,-29,-87,-87v0,-59,29,-88,87,-88v59,0,88,29,88,88v0,58,-29,87,-88,87","w":1292},"\u03ac":{"d":"1273,-1069r-164,537r159,537r-200,0r-72,-312v-48,69,-93,118,-123,155v-81,101,-189,157,-338,157v-242,0,-374,-143,-437,-329v-70,-207,-13,-468,91,-586v78,-88,187,-159,346,-159v148,0,256,56,338,158v31,39,76,93,121,174r79,-332r200,0xm241,-532v0,208,86,363,294,363v100,0,179,-37,237,-111v41,-25,92,-109,152,-252r-150,-254v-43,-70,-122,-108,-239,-108v-207,0,-294,155,-294,362xm428,-1230r247,-247r123,124r-246,246","w":1336},"\u03ad":{"d":"376,-166v94,0,138,-62,144,-155r171,0v-6,155,-82,258,-196,303v-183,72,-353,-34,-407,-170v-50,-128,-20,-269,71,-349v-91,-66,-121,-220,-71,-349v53,-137,231,-242,410,-170v116,47,190,154,192,315r-171,0v-1,-100,-48,-165,-143,-168v-74,-3,-145,67,-142,144v2,86,67,145,166,142r0,172v-99,-3,-166,53,-166,142v0,86,57,143,142,143xm229,-1230r247,-247r123,124r-246,246","w":760},"\u03ae":{"d":"520,-877v-161,-60,-313,48,-323,202r-3,0r0,680r-175,0r0,-1074r175,0r0,77v108,-81,259,-103,394,-46v139,59,256,181,256,363r-1,1078r-175,0r0,-1078v-10,-100,-68,-172,-148,-202xm346,-1230r247,-247r123,124r-246,246","w":958},"\u03af":{"d":"124,5r0,-1074r175,0r0,1074r-175,0xm20,-1230r247,-247r123,124r-246,246","w":433},"\u03b0":{"d":"925,-406v-6,192,-112,315,-252,378v-98,43,-222,44,-319,0v-140,-63,-251,-185,-251,-378r0,-664r165,0r10,664v3,111,62,187,144,218v170,63,328,-43,328,-218r0,-664r175,0r0,664xm747,-1160v-58,0,-87,-29,-87,-87v0,-59,29,-88,87,-88v59,0,88,29,88,88v0,58,-29,87,-88,87xm261,-1160v-58,0,-87,-29,-87,-87v0,-59,29,-88,87,-88v59,0,88,29,88,88v0,58,-29,87,-88,87xm405,-1302r189,-177r94,89r-188,176","w":1033},"\u03b1":{"d":"1320,-1069r-164,537r159,537r-200,0r-72,-312v-48,69,-93,118,-123,155v-81,101,-189,157,-338,157v-242,0,-375,-143,-438,-329v-70,-207,-12,-468,92,-586v78,-88,187,-159,346,-159v148,0,256,56,338,158v31,39,76,93,121,174r79,-332r200,0xm288,-532v0,208,86,363,294,363v100,0,179,-37,237,-111v41,-25,92,-109,152,-252r-150,-254v-43,-70,-122,-108,-239,-108v-207,0,-294,155,-294,362","w":1465},"\u03b2":{"d":"149,407r-1,-1460v6,-192,112,-316,252,-379v98,-43,220,-44,318,0v140,63,252,186,252,379v0,135,-52,243,-157,324v144,108,198,295,125,482v-69,176,-290,309,-527,225r0,-200v87,81,244,57,315,-16v54,-56,92,-167,50,-259v-37,-80,-106,-142,-217,-145r0,-175v111,-3,185,-62,217,-144v78,-197,-100,-388,-308,-309v-82,31,-145,105,-145,216r0,1461r-174,0","w":1007},"\u03b3":{"d":"348,404r53,-399r-38,0r-319,-1074r182,0r262,882r263,-882r182,0r-319,1074r-38,0r60,399r-288,0","w":978},"\u03b4":{"d":"839,-38v-425,180,-881,-224,-710,-682v67,-178,212,-310,424,-343r-436,-350r1010,0r0,175r-516,0r353,284v116,90,205,231,205,422v0,252,-146,416,-330,494xm298,-391v66,158,261,280,473,193v126,-51,223,-163,223,-334v0,-169,-100,-279,-223,-334v-145,-66,-318,-1,-395,78v-83,85,-138,254,-78,397","w":1268},"\u03b5":{"d":"427,-166v94,0,138,-62,144,-155r171,0v-6,155,-82,258,-196,303v-183,72,-354,-34,-408,-170v-50,-128,-19,-269,72,-349v-91,-66,-122,-220,-72,-349v53,-137,231,-242,410,-170v116,47,191,154,193,315r-171,0v-1,-100,-48,-165,-143,-168v-74,-3,-145,67,-142,144v2,86,67,145,166,142r0,172v-99,-3,-166,53,-166,142v0,86,57,143,142,143","w":825},"\u03b6":{"d":"652,153v0,-115,-103,-142,-230,-142v-192,0,-314,-115,-376,-255v-58,-133,-37,-279,41,-392r451,-653r-477,0r0,-173r692,0r0,173r-522,753v-75,94,-38,243,32,306v39,36,93,70,159,70v78,0,149,-11,212,20v105,51,192,145,192,292v0,134,-73,231,-163,283r-87,-151v41,-24,76,-69,76,-131","w":934},"\u03b7":{"d":"550,-877v-161,-60,-313,48,-323,202r-3,0r0,680r-175,0r0,-1074r175,0r0,77v108,-81,259,-103,394,-46v139,59,256,181,256,363r-1,1078r-175,0r0,-1078v-10,-100,-68,-172,-148,-202","w":1018},"\u03b8":{"d":"254,-1348v85,-88,279,-157,440,-85v139,61,256,181,256,364r0,663v-6,192,-112,315,-252,378v-98,43,-221,44,-318,0v-140,-63,-252,-185,-252,-378r0,-663v5,-119,61,-212,126,-279xm539,-1289v-137,0,-236,90,-236,220r0,278r472,0r0,-278v-18,-127,-99,-220,-236,-220xm303,-636v5,111,-14,237,19,322v40,103,175,182,308,126v81,-34,145,-106,145,-218r0,-230r-472,0","w":1077},"\u03b9":{"d":"161,5r0,-1074r175,0r0,1074r-175,0","w":506},"\u03ba":{"d":"161,5r0,-1073r175,0r0,468r413,-469r233,0r-319,363r314,711r-191,0r-251,-567r-199,228r0,339r-175,0","w":1094},"\u03bb":{"d":"435,-1074r-117,-393r182,0r438,1467r-182,0r-263,-880r-262,880r-182,0r319,-1074r67,0","w":968},"\u03bd":{"d":"373,5r-319,-1074r182,0r262,882r263,-882r182,0r-319,1074r-251,0","w":997},"\u03be":{"d":"608,-1432v156,71,274,219,248,441r-178,0v31,-137,-39,-240,-137,-279v-197,-79,-388,102,-309,309v31,83,107,141,218,144r0,175v-39,0,-76,-4,-110,-13v-61,88,-173,206,-105,347v38,78,106,148,213,148v78,0,149,-11,212,20v105,51,192,145,192,292v0,134,-73,231,-163,283r-87,-151v41,-24,76,-69,76,-131v0,-115,-103,-142,-230,-142v-192,0,-313,-116,-376,-255v-60,-130,-24,-296,41,-392r70,-103v-134,-114,-186,-294,-111,-473v59,-142,185,-252,378,-252v56,0,108,10,158,32","w":968},"\u03bf":{"d":"96,-532v0,-358,377,-655,744,-494v183,80,331,242,331,494v0,252,-146,414,-330,494v-367,160,-745,-134,-745,-494xm300,-391v66,158,261,280,473,193v126,-51,223,-163,223,-334v0,-169,-100,-279,-223,-334v-145,-66,-318,-1,-395,78v-83,85,-138,254,-78,397","w":1266},"\u03c0":{"d":"795,5r0,-900r-353,0r0,900r-175,0r0,-900r-161,0r0,-173r1019,0r0,173r-155,0r0,900r-175,0","w":1233},"\u03c1":{"d":"885,-38v-203,85,-426,40,-570,-97r0,533r-175,0r0,-945v19,-334,197,-522,537,-522v252,0,412,148,495,329v58,127,56,288,0,416v-57,129,-157,231,-287,286xm344,-391v66,158,261,280,473,193v126,-51,223,-163,223,-334v0,-169,-100,-279,-223,-334v-145,-66,-318,-1,-395,78v-83,85,-138,254,-78,397","w":1233},"\u03c2":{"d":"739,-19v-57,9,-118,24,-179,24v-289,0,-537,-248,-537,-537v0,-342,338,-634,705,-510v163,55,283,174,341,335r-191,0v-63,-102,-160,-187,-318,-187v-170,0,-278,99,-334,222v-66,145,-2,319,78,396v77,74,215,127,356,91v181,-46,323,58,376,190v76,188,-31,368,-172,423v-40,16,-81,25,-125,25r0,-174v88,-5,148,-61,148,-149v0,-88,-60,-143,-148,-149","w":1164},"\u03c3":{"d":"102,-532v0,-289,250,-537,537,-537r652,1r0,173r-256,0v140,144,187,368,99,571v-79,184,-243,321,-495,329v-289,9,-537,-248,-537,-537xm306,-391v66,158,261,280,473,193v126,-51,223,-163,223,-334v0,-169,-100,-279,-223,-334v-145,-66,-318,-1,-395,78v-83,85,-138,254,-78,397","w":1371},"\u03c4":{"d":"306,5r0,-902r-257,0r0,-173r682,0r0,173r-250,0r0,902r-175,0","w":783},"\u03c5":{"d":"958,-406v-6,192,-112,315,-252,378v-98,43,-221,44,-318,0v-140,-63,-252,-185,-252,-378r0,-664r165,0r10,664v3,111,62,187,144,218v170,63,328,-43,328,-218r0,-664r175,0r0,664","w":1094},"\u03c6":{"d":"393,-859v-116,68,-201,272,-140,447v41,117,131,204,260,235r0,-894v301,-12,482,125,576,331v55,119,58,268,9,394v-68,175,-208,305,-410,344r0,400r-175,0r0,-398v-211,-32,-355,-167,-421,-344v-94,-254,15,-539,170,-654v41,-30,84,-52,131,-61r0,200xm688,-180v176,-45,326,-250,249,-468v-41,-114,-126,-202,-249,-234r0,702","w":1185},"\u03c7":{"d":"320,-1071r206,494r206,-494r200,0r-306,734r306,735r-199,0r-207,-495r-207,495r-199,0r306,-735r-306,-734r200,0","w":1052},"\u03c8":{"d":"649,-174v134,-19,224,-89,224,-232r0,-664r175,0r0,664v-10,249,-161,381,-399,407r0,400r-175,0r0,-401v-235,-29,-393,-157,-393,-406r0,-664r165,0r10,664v4,143,88,212,218,232r0,-894r175,0r0,894","w":1129},"\u03c9":{"d":"969,-894v5,221,-26,476,59,619v71,71,142,106,214,106v168,0,219,-183,219,-363v0,-147,-42,-271,-127,-333v-27,-19,-58,-29,-92,-29r0,-175v208,10,315,159,365,331v84,286,-17,591,-205,700v-127,74,-346,42,-427,-44v-57,-60,-89,-110,-94,-153v-5,43,-38,93,-95,153v-82,86,-299,117,-426,44v-189,-108,-285,-420,-205,-700v36,-125,107,-229,206,-288v48,-29,101,-43,159,-43r0,175v-167,17,-219,182,-219,362v0,147,39,276,127,334v108,71,210,14,306,-77v85,-144,54,-398,61,-619r174,0","w":1762},"\u03ca":{"d":"175,5r0,-1074r175,0r0,1074r-175,0xm406,-1289v-58,0,-87,-29,-87,-87v0,-59,29,-88,87,-88v59,0,88,29,88,88v0,58,-29,87,-88,87xm104,-1289v-58,0,-87,-29,-87,-87v0,-59,29,-88,87,-88v59,0,88,29,88,88v0,58,-29,87,-88,87","w":514},"\u03cb":{"d":"924,-406v-6,192,-112,315,-252,378v-98,43,-221,44,-318,0v-140,-63,-252,-185,-252,-378r0,-664r165,0r10,664v3,111,62,187,144,218v170,63,328,-43,328,-218r0,-664r175,0r0,664xm758,-1289v-58,0,-87,-29,-87,-87v0,-59,29,-88,87,-88v59,0,88,29,88,88v0,58,-29,87,-88,87xm272,-1289v-58,0,-87,-29,-87,-87v0,-59,29,-88,87,-88v59,0,88,29,88,88v0,58,-29,87,-88,87","w":1027},"\u03cc":{"d":"52,-532v0,-358,377,-655,744,-494v183,80,331,242,331,494v0,252,-146,414,-330,494v-367,160,-745,-134,-745,-494xm256,-391v66,158,261,280,473,193v126,-51,223,-163,223,-334v0,-169,-100,-279,-223,-334v-145,-66,-318,-1,-395,78v-83,85,-138,254,-78,397xm404,-1230r247,-247r123,124r-246,246","w":1184},"\u03cd":{"d":"901,-406v-6,192,-112,315,-252,378v-98,43,-222,44,-319,0v-140,-63,-251,-185,-251,-378r0,-664r165,0r10,664v3,111,62,187,144,218v170,63,328,-43,328,-218r0,-664r175,0r0,664xm307,-1230r247,-247r123,124r-246,246","w":989},"\u03ce":{"d":"1032,-894v5,221,-26,476,59,619v71,71,142,106,214,106v168,0,219,-183,219,-363v0,-147,-43,-271,-128,-333v-27,-19,-57,-29,-91,-29r0,-175v208,10,315,159,365,331v84,286,-18,591,-206,700v-127,74,-345,42,-426,-44v-57,-60,-89,-110,-94,-153v-5,43,-38,93,-95,153v-82,86,-298,117,-425,44v-189,-108,-286,-420,-206,-700v36,-125,107,-229,206,-288v48,-29,101,-43,159,-43r0,175v-167,17,-219,182,-219,362v0,147,39,276,127,334v108,71,210,14,306,-77v85,-144,54,-398,61,-619r174,0xm105,-1230r247,-247r123,124r-246,246","w":1731},"\u0400":{"d":"1068,5r-949,0r0,-1469r949,0r0,175r-774,0r0,472r613,0r0,175r-613,0r0,473r774,0r0,174xm584,-1502r-247,-247r124,-123r246,246","w":1076},"\u0401":{"d":"1065,5r-949,0r0,-1469r949,0r0,175r-774,0r0,472r613,0r0,175r-613,0r0,473r774,0r0,174xm852,-1681v-61,0,-92,-31,-92,-93v0,-63,31,-94,92,-94v62,0,93,31,93,94v0,62,-31,93,-93,93xm339,-1681v-61,0,-92,-31,-92,-93v0,-63,31,-94,92,-94v62,0,93,31,93,94v0,62,-31,93,-93,93","w":1080},"\u0402":{"d":"1009,-1464r0,175r-391,0r0,472v136,4,268,-13,368,33v139,65,252,185,252,378v0,192,-114,314,-252,378v-50,22,-102,33,-159,33r-392,0r0,-1294r-390,0r0,-175r964,0xm618,-170v105,-5,222,13,301,-19v102,-41,182,-176,125,-309v-35,-81,-106,-144,-217,-144r-209,0r0,472","w":1311},"\u0403":{"d":"1038,-1290r-774,0r0,1295r-175,0r0,-1469r949,0r0,174xm495,-1648r247,-247r123,124r-246,246","w":1038},"\u0404":{"d":"829,-169v248,-8,401,-132,494,-298r192,0v-82,208,-244,366,-462,437v-502,164,-959,-232,-959,-699v0,-465,456,-863,958,-699v219,71,381,228,463,437r-192,0v-95,-164,-246,-290,-494,-298v-302,-9,-560,259,-560,560v0,303,258,568,560,560xm857,-814r0,155r-669,0r0,-155r669,0","w":1580},"\u0405":{"d":"350,-28v-156,-71,-270,-217,-247,-439r179,0v-31,137,38,240,136,279v198,78,390,-102,309,-309v-32,-82,-107,-141,-217,-145v-193,-5,-315,-113,-378,-252v-44,-97,-43,-220,0,-318v63,-140,185,-252,378,-252v192,0,316,113,378,252v30,67,40,140,28,221r-178,0v31,-137,-39,-240,-137,-279v-197,-79,-388,102,-309,309v31,83,107,141,218,144v192,6,315,114,378,253v43,98,43,219,0,